svm_type c_svc
kernel_type rbf
gamma 0.0
nr_class 3
total_sv 993
rho 1.0 1.0 1.0
label 0 1 2
nr_sv 307 343 343
SV
1.0 1.0 1:1.0 2:0.0 3:0.0 4:1.0 5:0.0 6:0.0 
1.0 1.0 1:3.0 2:0.0 3:0.0 4:0.0 5:0.0 6:0.0 
1.0 1.0 1:3.0 2:0.0 3:0.0 4:3.0 5:1.0 6:0.0 
1.0 1.0 1:1.0 2:1.0 3:0.0 4:0.0 5:0.0 6:0.0 
1.0 1.0 1:2.0 2:0.0 3:0.0 4:1.0 5:1.0 6:0.0 
1.0 1.0 1:0.0 2:2.0 3:0.0 4:0.0 5:0.0 6:1.0 
1.0 1.0 1:3.0 2:1.0 3:0.0 4:1.0 5:0.0 6:0.0 
1.0 1.0 1:1.0 2:1.0 3:0.0 4:1.0 5:2.0 6:0.0 
1.0 1.0 1:1.0 2:0.0 3:0.0 4:1.0 5:0.0 6:0.0 
1.0 1.0 1:2.0 2:0.0 3:0.0 4:0.0 5:1.0 6:0.0 
1.0 1.0 1:1.0 2:1.0 3:0.0 4:1.0 5:0.0 6:0.0 
1.0 1.0 1:2.0 2:0.0 3:0.0 4:0.0 5:0.0 6:0.0 
1.0 1.0 1:3.0 2:0.0 3:0.0 4:4.0 5:0.0 6:0.0 
1.0 1.0 1:2.0 2:0.0 3:0.0 4:0.0 5:0.0 6:0.0 
1.0 1.0 1:2.0 2:0.0 3:0.0 4:1.0 5:0.0 6:0.0 
1.0 1.0 1:2.0 2:2.0 3:0.0 4:0.0 5:0.0 6:0.0 
1.0 1.0 1:3.0 2:1.0 3:0.0 4:0.0 5:0.0 6:0.0 
1.0 1.0 1:2.0 2:1.0 3:0.0 4:3.0 5:0.0 6:0.0 
1.0 1.0 1:0.0 2:1.0 3:0.0 4:0.0 5:0.0 6:1.0 
1.0 1.0 1:0.0 2:0.0 3:0.0 4:0.0 5:0.0 6:0.0 
1.0 1.0 1:0.0 2:0.0 3:0.0 4:4.0 5:0.0 6:0.0 
1.0 1.0 1:1.0 2:0.0 3:0.0 4:1.0 5:0.0 6:0.0 
1.0 1.0 1:1.0 2:0.0 3:0.0 4:0.0 5:0.0 6:0.0 
1.0 1.0 1:1.0 2:0.0 3:0.0 4:0.0 5:0.0 6:0.0 
1.0 1.0 1:1.0 2:0.0 3:0.0 4:0.0 5:0.0 6:0.0 
1.0 1.0 1:1.0 2:0.0 3:0.0 4:0.0 5:0.0 6:0.0 
1.0 1.0 1:2.0 2:1.0 3:0.0 4:1.0 5:0.0 6:0.0 
1.0 1.0 1:1.0 2:1.0 3:0.0 4:2.0 5:0.0 6:0.0 
1.0 1.0 1:0.0 2:0.0 3:1.0 4:1.0 5:0.0 6:0.0 
1.0 1.0 1:2.0 2:0.0 3:0.0 4:0.0 5:0.0 6:0.0 
1.0 1.0 1:2.0 2:0.0 3:0.0 4:0.0 5:0.0 6:0.0 
1.0 1.0 1:1.0 2:0.0 3:0.0 4:3.0 5:0.0 6:0.0 
1.0 1.0 1:0.0 2:0.0 3:0.0 4:1.0 5:0.0 6:0.0 
1.0 1.0 1:1.0 2:0.0 3:0.0 4:0.0 5:0.0 6:0.0 
1.0 1.0 1:1.0 2:0.0 3:0.0 4:2.0 5:0.0 6:0.0 
1.0 1.0 1:1.0 2:0.0 3:0.0 4:3.0 5:0.0 6:0.0 
1.0 1.0 1:0.0 2:0.0 3:0.0 4:0.0 5:0.0 6:0.0 
1.0 1.0 1:1.0 2:0.0 3:0.0 4:1.0 5:0.0 6:0.0 
1.0 1.0 1:0.0 2:1.0 3:0.0 4:0.0 5:0.0 6:1.0 
1.0 1.0 1:2.0 2:0.0 3:0.0 4:0.0 5:0.0 6:0.0 
1.0 1.0 1:2.0 2:1.0 3:0.0 4:2.0 5:0.0 6:0.0 
1.0 1.0 1:3.0 2:2.0 3:0.0 4:0.0 5:0.0 6:1.0 
1.0 1.0 1:1.0 2:1.0 3:0.0 4:0.0 5:0.0 6:3.0 
1.0 1.0 1:0.0 2:0.0 3:0.0 4:2.0 5:0.0 6:0.0 
1.0 1.0 1:2.0 2:1.0 3:0.0 4:1.0 5:0.0 6:0.0 
1.0 1.0 1:1.0 2:0.0 3:0.0 4:3.0 5:0.0 6:0.0 
1.0 1.0 1:0.0 2:1.0 3:0.0 4:1.0 5:0.0 6:0.0 
1.0 1.0 1:0.0 2:0.0 3:1.0 4:1.0 5:1.0 6:0.0 
1.0 1.0 1:0.0 2:0.0 3:0.0 4:0.0 5:1.0 6:0.0 
1.0 1.0 1:1.0 2:0.0 3:0.0 4:1.0 5:0.0 6:0.0 
1.0 1.0 1:0.0 2:0.0 3:2.0 4:0.0 5:0.0 6:0.0 
1.0 1.0 1:2.0 2:0.0 3:0.0 4:1.0 5:0.0 6:0.0 
1.0 1.0 1:3.0 2:1.0 3:0.0 4:1.0 5:1.0 6:0.0 
1.0 1.0 1:1.0 2:0.0 3:0.0 4:0.0 5:0.0 6:0.0 
1.0 1.0 1:1.0 2:0.0 3:0.0 4:0.0 5:1.0 6:0.0 
1.0 1.0 1:2.0 2:0.0 3:0.0 4:0.0 5:0.0 6:0.0 
1.0 1.0 1:1.0 2:0.0 3:0.0 4:1.0 5:0.0 6:0.0 
1.0 1.0 1:1.0 2:0.0 3:0.0 4:1.0 5:0.0 6:0.0 
1.0 1.0 1:0.0 2:0.0 3:0.0 4:0.0 5:0.0 6:0.0 
1.0 1.0 1:5.0 2:0.0 3:0.0 4:2.0 5:0.0 6:0.0 
1.0 1.0 1:0.0 2:2.0 3:0.0 4:0.0 5:0.0 6:1.0 
1.0 1.0 1:1.0 2:0.0 3:0.0 4:0.0 5:0.0 6:0.0 
1.0 1.0 1:0.0 2:0.0 3:2.0 4:1.0 5:0.0 6:0.0 
1.0 1.0 1:0.0 2:0.0 3:0.0 4:0.0 5:0.0 6:0.0 
1.0 1.0 1:1.0 2:0.0 3:0.0 4:0.0 5:0.0 6:0.0 
1.0 1.0 1:1.0 2:0.0 3:0.0 4:0.0 5:0.0 6:0.0 
1.0 1.0 1:3.0 2:0.0 3:0.0 4:0.0 5:0.0 6:1.0 
1.0 1.0 1:1.0 2:1.0 3:0.0 4:2.0 5:1.0 6:0.0 
1.0 1.0 1:1.0 2:0.0 3:0.0 4:0.0 5:0.0 6:0.0 
1.0 1.0 1:3.0 2:2.0 3:0.0 4:1.0 5:0.0 6:0.0 
1.0 1.0 1:0.0 2:1.0 3:0.0 4:2.0 5:0.0 6:0.0 
1.0 1.0 1:1.0 2:0.0 3:0.0 4:0.0 5:0.0 6:2.0 
1.0 1.0 1:1.0 2:0.0 3:0.0 4:0.0 5:0.0 6:1.0 
1.0 1.0 1:1.0 2:0.0 3:0.0 4:2.0 5:0.0 6:0.0 
1.0 1.0 1:3.0 2:0.0 3:0.0 4:1.0 5:1.0 6:0.0 
1.0 1.0 1:1.0 2:2.0 3:0.0 4:0.0 5:0.0 6:0.0 
1.0 1.0 1:1.0 2:0.0 3:0.0 4:0.0 5:0.0 6:0.0 
1.0 1.0 1:1.0 2:0.0 3:0.0 4:0.0 5:2.0 6:0.0 
1.0 1.0 1:1.0 2:0.0 3:0.0 4:0.0 5:0.0 6:0.0 
1.0 1.0 1:3.0 2:3.0 3:0.0 4:0.0 5:1.0 6:0.0 
1.0 1.0 1:3.0 2:3.0 3:0.0 4:0.0 5:1.0 6:0.0 
1.0 1.0 1:3.0 2:3.0 3:0.0 4:1.0 5:0.0 6:0.0 
1.0 1.0 1:2.0 2:0.0 3:0.0 4:1.0 5:0.0 6:0.0 
1.0 1.0 1:1.0 2:0.0 3:0.0 4:0.0 5:0.0 6:0.0 
1.0 1.0 1:2.0 2:0.0 3:0.0 4:5.0 5:0.0 6:0.0 
1.0 1.0 1:2.0 2:0.0 3:0.0 4:1.0 5:0.0 6:0.0 
1.0 1.0 1:1.0 2:0.0 3:0.0 4:0.0 5:0.0 6:0.0 
1.0 1.0 1:0.0 2:0.0 3:0.0 4:0.0 5:1.0 6:0.0 
1.0 1.0 1:3.0 2:0.0 3:0.0 4:0.0 5:1.0 6:0.0 
1.0 1.0 1:0.0 2:0.0 3:0.0 4:0.0 5:0.0 6:0.0 
1.0 1.0 1:3.0 2:1.0 3:0.0 4:3.0 5:0.0 6:0.0 
1.0 1.0 1:0.0 2:0.0 3:0.0 4:0.0 5:0.0 6:0.0 
1.0 1.0 1:0.0 2:0.0 3:0.0 4:0.0 5:0.0 6:0.0 
1.0 1.0 1:2.0 2:0.0 3:0.0 4:0.0 5:0.0 6:0.0 
1.0 1.0 1:1.0 2:0.0 3:0.0 4:1.0 5:0.0 6:0.0 
1.0 1.0 1:0.0 2:0.0 3:0.0 4:0.0 5:0.0 6:0.0 
1.0 1.0 1:1.0 2:2.0 3:0.0 4:1.0 5:0.0 6:0.0 
1.0 1.0 1:2.0 2:1.0 3:0.0 4:0.0 5:0.0 6:0.0 
1.0 1.0 1:2.0 2:1.0 3:0.0 4:0.0 5:0.0 6:0.0 
1.0 1.0 1:0.0 2:0.0 3:0.0 4:0.0 5:0.0 6:0.0 
1.0 1.0 1:4.0 2:0.0 3:0.0 4:1.0 5:0.0 6:0.0 
1.0 1.0 1:0.0 2:0.0 3:0.0 4:0.0 5:0.0 6:0.0 
1.0 1.0 1:0.0 2:0.0 3:0.0 4:0.0 5:0.0 6:0.0 
1.0 1.0 1:1.0 2:1.0 3:0.0 4:0.0 5:0.0 6:0.0 
1.0 1.0 1:5.0 2:0.0 3:0.0 4:1.0 5:0.0 6:0.0 
1.0 1.0 1:3.0 2:0.0 3:0.0 4:3.0 5:0.0 6:0.0 
1.0 1.0 1:4.0 2:0.0 3:0.0 4:3.0 5:0.0 6:0.0 
1.0 1.0 1:0.0 2:0.0 3:1.0 4:1.0 5:1.0 6:0.0 
1.0 1.0 1:0.0 2:0.0 3:0.0 4:0.0 5:0.0 6:0.0 
1.0 1.0 1:1.0 2:0.0 3:0.0 4:0.0 5:0.0 6:0.0 
1.0 1.0 1:0.0 2:0.0 3:0.0 4:0.0 5:0.0 6:0.0 
1.0 1.0 1:1.0 2:0.0 3:0.0 4:0.0 5:1.0 6:0.0 
1.0 1.0 1:2.0 2:1.0 3:0.0 4:0.0 5:0.0 6:0.0 
1.0 1.0 1:2.0 2:0.0 3:0.0 4:0.0 5:0.0 6:0.0 
1.0 1.0 1:1.0 2:0.0 3:0.0 4:0.0 5:0.0 6:0.0 
1.0 1.0 1:0.0 2:0.0 3:3.0 4:3.0 5:0.0 6:0.0 
1.0 1.0 1:1.0 2:0.0 3:0.0 4:0.0 5:0.0 6:0.0 
1.0 1.0 1:0.0 2:1.0 3:0.0 4:1.0 5:0.0 6:0.0 
1.0 1.0 1:0.0 2:1.0 3:0.0 4:3.0 5:0.0 6:0.0 
1.0 1.0 1:3.0 2:0.0 3:0.0 4:0.0 5:0.0 6:1.0 
1.0 1.0 1:0.0 2:1.0 3:0.0 4:0.0 5:0.0 6:0.0 
1.0 1.0 1:1.0 2:2.0 3:0.0 4:0.0 5:0.0 6:1.0 
1.0 1.0 1:0.0 2:1.0 3:0.0 4:0.0 5:0.0 6:0.0 
1.0 1.0 1:0.0 2:0.0 3:1.0 4:0.0 5:0.0 6:0.0 
1.0 1.0 1:1.0 2:1.0 3:0.0 4:3.0 5:0.0 6:0.0 
1.0 1.0 1:1.0 2:0.0 3:0.0 4:2.0 5:0.0 6:0.0 
1.0 1.0 1:1.0 2:0.0 3:0.0 4:0.0 5:1.0 6:0.0 
1.0 1.0 1:3.0 2:0.0 3:0.0 4:0.0 5:0.0 6:1.0 
1.0 1.0 1:0.0 2:0.0 3:0.0 4:0.0 5:0.0 6:0.0 
1.0 1.0 1:2.0 2:0.0 3:0.0 4:1.0 5:0.0 6:0.0 
1.0 1.0 1:1.0 2:1.0 3:0.0 4:3.0 5:1.0 6:0.0 
1.0 1.0 1:0.0 2:0.0 3:0.0 4:0.0 5:0.0 6:0.0 
1.0 1.0 1:2.0 2:1.0 3:0.0 4:2.0 5:0.0 6:0.0 
1.0 1.0 1:0.0 2:0.0 3:0.0 4:0.0 5:0.0 6:0.0 
1.0 1.0 1:1.0 2:0.0 3:0.0 4:0.0 5:0.0 6:0.0 
1.0 1.0 1:0.0 2:0.0 3:0.0 4:2.0 5:0.0 6:0.0 
1.0 1.0 1:1.0 2:1.0 3:0.0 4:0.0 5:0.0 6:2.0 
1.0 1.0 1:0.0 2:0.0 3:0.0 4:4.0 5:0.0 6:0.0 
1.0 1.0 1:0.0 2:0.0 3:0.0 4:1.0 5:0.0 6:0.0 
1.0 1.0 1:2.0 2:0.0 3:0.0 4:1.0 5:1.0 6:0.0 
1.0 1.0 1:0.0 2:0.0 3:0.0 4:0.0 5:0.0 6:0.0 
1.0 1.0 1:1.0 2:0.0 3:0.0 4:1.0 5:0.0 6:0.0 
1.0 1.0 1:0.0 2:0.0 3:2.0 4:1.0 5:0.0 6:0.0 
1.0 1.0 1:1.0 2:0.0 3:0.0 4:1.0 5:0.0 6:0.0 
1.0 1.0 1:1.0 2:0.0 3:0.0 4:1.0 5:0.0 6:0.0 
1.0 1.0 1:0.0 2:0.0 3:1.0 4:1.0 5:0.0 6:0.0 
1.0 1.0 1:1.0 2:3.0 3:0.0 4:2.0 5:0.0 6:0.0 
1.0 1.0 1:0.0 2:0.0 3:1.0 4:0.0 5:0.0 6:0.0 
1.0 1.0 1:2.0 2:0.0 3:0.0 4:0.0 5:0.0 6:1.0 
1.0 1.0 1:0.0 2:0.0 3:0.0 4:1.0 5:0.0 6:0.0 
1.0 1.0 1:1.0 2:0.0 3:0.0 4:1.0 5:1.0 6:0.0 
1.0 1.0 1:2.0 2:0.0 3:0.0 4:2.0 5:0.0 6:0.0 
1.0 1.0 1:1.0 2:0.0 3:0.0 4:0.0 5:0.0 6:0.0 
1.0 1.0 1:1.0 2:0.0 3:0.0 4:0.0 5:0.0 6:0.0 
1.0 1.0 1:1.0 2:0.0 3:0.0 4:0.0 5:0.0 6:0.0 
1.0 1.0 1:1.0 2:0.0 3:0.0 4:0.0 5:0.0 6:0.0 
1.0 1.0 1:0.0 2:0.0 3:0.0 4:0.0 5:0.0 6:0.0 
1.0 1.0 1:1.0 2:0.0 3:0.0 4:1.0 5:0.0 6:0.0 
1.0 1.0 1:2.0 2:0.0 3:0.0 4:2.0 5:0.0 6:0.0 
1.0 1.0 1:1.0 2:0.0 3:0.0 4:3.0 5:0.0 6:0.0 
1.0 1.0 1:1.0 2:0.0 3:0.0 4:1.0 5:0.0 6:0.0 
1.0 1.0 1:2.0 2:0.0 3:0.0 4:0.0 5:0.0 6:0.0 
1.0 1.0 1:0.0 2:0.0 3:0.0 4:0.0 5:0.0 6:0.0 
1.0 1.0 1:3.0 2:0.0 3:0.0 4:0.0 5:0.0 6:1.0 
1.0 1.0 1:1.0 2:0.0 3:0.0 4:2.0 5:0.0 6:0.0 
1.0 1.0 1:2.0 2:0.0 3:0.0 4:2.0 5:0.0 6:0.0 
1.0 1.0 1:0.0 2:0.0 3:1.0 4:3.0 5:0.0 6:0.0 
1.0 1.0 1:1.0 2:0.0 3:0.0 4:0.0 5:0.0 6:0.0 
1.0 1.0 1:1.0 2:0.0 3:0.0 4:1.0 5:0.0 6:0.0 
1.0 1.0 1:3.0 2:0.0 3:0.0 4:0.0 5:0.0 6:0.0 
1.0 1.0 1:0.0 2:0.0 3:0.0 4:1.0 5:0.0 6:0.0 
1.0 1.0 1:1.0 2:0.0 3:0.0 4:0.0 5:0.0 6:0.0 
1.0 1.0 1:0.0 2:0.0 3:0.0 4:0.0 5:0.0 6:1.0 
1.0 1.0 1:1.0 2:0.0 3:0.0 4:1.0 5:0.0 6:0.0 
1.0 1.0 1:2.0 2:0.0 3:0.0 4:1.0 5:0.0 6:0.0 
1.0 1.0 1:0.0 2:0.0 3:0.0 4:1.0 5:0.0 6:0.0 
1.0 1.0 1:1.0 2:0.0 3:0.0 4:2.0 5:0.0 6:0.0 
1.0 1.0 1:2.0 2:0.0 3:0.0 4:1.0 5:0.0 6:0.0 
1.0 1.0 1:1.0 2:0.0 3:0.0 4:0.0 5:0.0 6:0.0 
1.0 1.0 1:1.0 2:1.0 3:0.0 4:2.0 5:0.0 6:0.0 
1.0 1.0 1:0.0 2:0.0 3:1.0 4:1.0 5:0.0 6:0.0 
1.0 1.0 1:1.0 2:0.0 3:0.0 4:1.0 5:0.0 6:0.0 
1.0 1.0 1:0.0 2:0.0 3:0.0 4:0.0 5:0.0 6:0.0 
1.0 1.0 1:2.0 2:0.0 3:0.0 4:2.0 5:0.0 6:0.0 
1.0 1.0 1:2.0 2:0.0 3:0.0 4:1.0 5:0.0 6:0.0 
1.0 1.0 1:1.0 2:1.0 3:0.0 4:0.0 5:0.0 6:1.0 
1.0 1.0 1:1.0 2:0.0 3:0.0 4:1.0 5:0.0 6:0.0 
1.0 1.0 1:1.0 2:1.0 3:0.0 4:4.0 5:0.0 6:0.0 
1.0 1.0 1:1.0 2:0.0 3:0.0 4:1.0 5:0.0 6:0.0 
1.0 1.0 1:1.0 2:0.0 3:0.0 4:1.0 5:0.0 6:0.0 
1.0 1.0 1:0.0 2:0.0 3:1.0 4:0.0 5:0.0 6:0.0 
1.0 1.0 1:1.0 2:0.0 3:0.0 4:0.0 5:0.0 6:0.0 
1.0 1.0 1:1.0 2:0.0 3:0.0 4:1.0 5:0.0 6:0.0 
1.0 1.0 1:1.0 2:0.0 3:0.0 4:1.0 5:0.0 6:0.0 
1.0 1.0 1:1.0 2:0.0 3:0.0 4:0.0 5:0.0 6:0.0 
1.0 1.0 1:3.0 2:0.0 3:0.0 4:0.0 5:0.0 6:0.0 
1.0 1.0 1:1.0 2:0.0 3:0.0 4:3.0 5:0.0 6:0.0 
1.0 1.0 1:1.0 2:0.0 3:0.0 4:0.0 5:0.0 6:0.0 
1.0 1.0 1:0.0 2:0.0 3:0.0 4:0.0 5:0.0 6:0.0 
1.0 1.0 1:1.0 2:0.0 3:0.0 4:1.0 5:0.0 6:0.0 
1.0 1.0 1:1.0 2:0.0 3:0.0 4:0.0 5:0.0 6:0.0 
1.0 1.0 1:1.0 2:0.0 3:0.0 4:1.0 5:0.0 6:0.0 
1.0 1.0 1:2.0 2:0.0 3:0.0 4:2.0 5:0.0 6:0.0 
1.0 1.0 1:3.0 2:1.0 3:0.0 4:0.0 5:0.0 6:0.0 
1.0 1.0 1:0.0 2:0.0 3:1.0 4:2.0 5:0.0 6:0.0 
1.0 1.0 1:1.0 2:0.0 3:0.0 4:2.0 5:0.0 6:0.0 
1.0 1.0 1:2.0 2:0.0 3:0.0 4:0.0 5:0.0 6:0.0 
1.0 1.0 1:2.0 2:0.0 3:0.0 4:0.0 5:0.0 6:0.0 
1.0 1.0 1:1.0 2:1.0 3:0.0 4:0.0 5:0.0 6:0.0 
1.0 1.0 1:2.0 2:0.0 3:0.0 4:0.0 5:0.0 6:0.0 
1.0 1.0 1:1.0 2:0.0 3:0.0 4:2.0 5:0.0 6:0.0 
1.0 1.0 1:0.0 2:0.0 3:2.0 4:1.0 5:0.0 6:0.0 
1.0 1.0 1:1.0 2:0.0 3:0.0 4:1.0 5:0.0 6:0.0 
1.0 1.0 1:1.0 2:1.0 3:0.0 4:0.0 5:0.0 6:1.0 
1.0 1.0 1:1.0 2:0.0 3:0.0 4:1.0 5:0.0 6:0.0 
1.0 1.0 1:1.0 2:0.0 3:0.0 4:0.0 5:0.0 6:0.0 
1.0 1.0 1:1.0 2:0.0 3:0.0 4:0.0 5:0.0 6:0.0 
1.0 1.0 1:1.0 2:0.0 3:0.0 4:1.0 5:0.0 6:0.0 
1.0 1.0 1:1.0 2:1.0 3:0.0 4:0.0 5:0.0 6:1.0 
1.0 1.0 1:1.0 2:0.0 3:0.0 4:1.0 5:0.0 6:0.0 
1.0 1.0 1:1.0 2:0.0 3:0.0 4:2.0 5:0.0 6:0.0 
1.0 1.0 1:0.0 2:0.0 3:0.0 4:0.0 5:0.0 6:0.0 
1.0 1.0 1:1.0 2:0.0 3:0.0 4:2.0 5:0.0 6:0.0 
1.0 1.0 1:0.0 2:0.0 3:0.0 4:0.0 5:0.0 6:0.0 
1.0 1.0 1:3.0 2:0.0 3:0.0 4:2.0 5:0.0 6:0.0 
1.0 1.0 1:2.0 2:0.0 3:0.0 4:1.0 5:0.0 6:0.0 
1.0 1.0 1:0.0 2:0.0 3:0.0 4:1.0 5:0.0 6:0.0 
1.0 1.0 1:0.0 2:0.0 3:2.0 4:3.0 5:0.0 6:0.0 
1.0 1.0 1:1.0 2:0.0 3:0.0 4:1.0 5:0.0 6:0.0 
1.0 1.0 1:2.0 2:0.0 3:0.0 4:0.0 5:0.0 6:0.0 
1.0 1.0 1:1.0 2:0.0 3:0.0 4:1.0 5:0.0 6:0.0 
1.0 1.0 1:2.0 2:0.0 3:0.0 4:0.0 5:0.0 6:0.0 
1.0 1.0 1:0.0 2:0.0 3:0.0 4:1.0 5:0.0 6:0.0 
1.0 1.0 1:1.0 2:0.0 3:0.0 4:0.0 5:0.0 6:0.0 
1.0 1.0 1:2.0 2:0.0 3:0.0 4:0.0 5:0.0 6:0.0 
1.0 1.0 1:2.0 2:0.0 3:0.0 4:0.0 5:0.0 6:0.0 
1.0 1.0 1:1.0 2:0.0 3:0.0 4:0.0 5:1.0 6:0.0 
1.0 1.0 1:1.0 2:0.0 3:0.0 4:0.0 5:1.0 6:0.0 
1.0 1.0 1:1.0 2:0.0 3:0.0 4:0.0 5:1.0 6:0.0 
1.0 1.0 1:1.0 2:0.0 3:0.0 4:0.0 5:1.0 6:0.0 
1.0 1.0 1:1.0 2:0.0 3:0.0 4:0.0 5:1.0 6:0.0 
1.0 1.0 1:0.0 2:1.0 3:0.0 4:0.0 5:0.0 6:0.0 
1.0 1.0 1:1.0 2:0.0 3:0.0 4:2.0 5:0.0 6:0.0 
1.0 1.0 1:4.0 2:0.0 3:0.0 4:0.0 5:0.0 6:1.0 
1.0 1.0 1:2.0 2:0.0 3:0.0 4:4.0 5:0.0 6:0.0 
1.0 1.0 1:1.0 2:0.0 3:0.0 4:1.0 5:0.0 6:0.0 
1.0 1.0 1:0.0 2:0.0 3:0.0 4:0.0 5:0.0 6:0.0 
1.0 1.0 1:0.0 2:0.0 3:0.0 4:0.0 5:1.0 6:0.0 
1.0 1.0 1:1.0 2:1.0 3:0.0 4:0.0 5:0.0 6:1.0 
1.0 1.0 1:2.0 2:0.0 3:0.0 4:3.0 5:0.0 6:0.0 
1.0 1.0 1:0.0 2:0.0 3:0.0 4:1.0 5:0.0 6:0.0 
1.0 1.0 1:0.0 2:0.0 3:0.0 4:1.0 5:0.0 6:0.0 
1.0 1.0 1:3.0 2:0.0 3:0.0 4:0.0 5:0.0 6:2.0 
1.0 1.0 1:0.0 2:0.0 3:0.0 4:0.0 5:0.0 6:0.0 
1.0 1.0 1:1.0 2:0.0 3:0.0 4:4.0 5:0.0 6:0.0 
1.0 1.0 1:0.0 2:0.0 3:0.0 4:1.0 5:0.0 6:0.0 
1.0 1.0 1:1.0 2:0.0 3:0.0 4:0.0 5:0.0 6:0.0 
1.0 1.0 1:0.0 2:0.0 3:0.0 4:0.0 5:1.0 6:0.0 
1.0 1.0 1:1.0 2:0.0 3:0.0 4:1.0 5:0.0 6:0.0 
1.0 1.0 1:1.0 2:0.0 3:0.0 4:3.0 5:0.0 6:0.0 
1.0 1.0 1:1.0 2:0.0 3:0.0 4:1.0 5:0.0 6:0.0 
1.0 1.0 1:1.0 2:0.0 3:0.0 4:2.0 5:0.0 6:0.0 
1.0 1.0 1:0.0 2:1.0 3:0.0 4:3.0 5:0.0 6:0.0 
1.0 1.0 1:1.0 2:0.0 3:0.0 4:1.0 5:0.0 6:0.0 
1.0 1.0 1:2.0 2:0.0 3:0.0 4:1.0 5:0.0 6:0.0 
1.0 1.0 1:1.0 2:0.0 3:0.0 4:0.0 5:0.0 6:0.0 
1.0 1.0 1:2.0 2:1.0 3:0.0 4:0.0 5:0.0 6:1.0 
1.0 1.0 1:1.0 2:1.0 3:0.0 4:0.0 5:0.0 6:1.0 
1.0 1.0 1:0.0 2:0.0 3:0.0 4:1.0 5:0.0 6:0.0 
1.0 1.0 1:3.0 2:0.0 3:0.0 4:1.0 5:0.0 6:0.0 
1.0 1.0 1:0.0 2:0.0 3:0.0 4:4.0 5:0.0 6:0.0 
1.0 1.0 1:4.0 2:0.0 3:0.0 4:0.0 5:0.0 6:1.0 
1.0 1.0 1:1.0 2:0.0 3:0.0 4:2.0 5:0.0 6:0.0 
1.0 1.0 1:1.0 2:0.0 3:0.0 4:0.0 5:0.0 6:0.0 
1.0 1.0 1:3.0 2:1.0 3:0.0 4:2.0 5:0.0 6:0.0 
1.0 1.0 1:2.0 2:0.0 3:0.0 4:0.0 5:0.0 6:1.0 
1.0 1.0 1:1.0 2:0.0 3:0.0 4:0.0 5:0.0 6:0.0 
1.0 1.0 1:1.0 2:1.0 3:0.0 4:0.0 5:1.0 6:0.0 
1.0 1.0 1:1.0 2:1.0 3:0.0 4:1.0 5:0.0 6:0.0 
1.0 1.0 1:0.0 2:1.0 3:0.0 4:0.0 5:0.0 6:0.0 
1.0 1.0 1:2.0 2:1.0 3:0.0 4:0.0 5:0.0 6:0.0 
1.0 1.0 1:1.0 2:0.0 3:0.0 4:1.0 5:0.0 6:0.0 
1.0 1.0 1:1.0 2:0.0 3:0.0 4:1.0 5:0.0 6:0.0 
1.0 1.0 1:0.0 2:1.0 3:0.0 4:2.0 5:0.0 6:0.0 
1.0 1.0 1:0.0 2:1.0 3:0.0 4:0.0 5:0.0 6:0.0 
1.0 1.0 1:1.0 2:0.0 3:0.0 4:0.0 5:0.0 6:0.0 
1.0 1.0 1:0.0 2:0.0 3:0.0 4:0.0 5:0.0 6:0.0 
1.0 1.0 1:1.0 2:0.0 3:0.0 4:0.0 5:0.0 6:0.0 
1.0 1.0 1:1.0 2:1.0 3:0.0 4:2.0 5:0.0 6:0.0 
1.0 1.0 1:2.0 2:0.0 3:0.0 4:1.0 5:0.0 6:0.0 
1.0 1.0 1:0.0 2:0.0 3:0.0 4:1.0 5:0.0 6:0.0 
1.0 1.0 1:0.0 2:0.0 3:1.0 4:0.0 5:0.0 6:0.0 
1.0 1.0 1:0.0 2:0.0 3:0.0 4:1.0 5:0.0 6:0.0 
1.0 1.0 1:1.0 2:1.0 3:0.0 4:0.0 5:0.0 6:0.0 
1.0 1.0 1:0.0 2:0.0 3:0.0 4:0.0 5:0.0 6:0.0 
1.0 1.0 1:1.0 2:0.0 3:0.0 4:0.0 5:0.0 6:0.0 
1.0 1.0 1:2.0 2:0.0 3:0.0 4:0.0 5:0.0 6:1.0 
1.0 1.0 1:0.0 2:0.0 3:1.0 4:0.0 5:0.0 6:0.0 
1.0 1.0 1:0.0 2:1.0 3:0.0 4:4.0 5:0.0 6:0.0 
1.0 1.0 1:2.0 2:0.0 3:0.0 4:0.0 5:0.0 6:1.0 
1.0 1.0 1:2.0 2:0.0 3:0.0 4:2.0 5:0.0 6:0.0 
1.0 1.0 1:1.0 2:1.0 3:0.0 4:1.0 5:0.0 6:0.0 
1.0 1.0 1:2.0 2:1.0 3:0.0 4:2.0 5:0.0 6:0.0 
1.0 1.0 1:0.0 2:0.0 3:0.0 4:0.0 5:0.0 6:0.0 
1.0 1.0 1:1.0 2:0.0 3:0.0 4:1.0 5:0.0 6:0.0 
1.0 1.0 1:0.0 2:1.0 3:0.0 4:1.0 5:0.0 6:0.0 
1.0 1.0 1:2.0 2:0.0 3:0.0 4:2.0 5:0.0 6:0.0 
-0.0 1.0 1:0.0 2:0.0 3:3.0 4:0.0 5:1.0 6:0.0 
-0.0 1.0 1:1.0 2:1.0 3:0.0 4:0.0 5:1.0 6:0.0 
-0.0 1.0 1:1.0 2:1.0 3:0.0 4:0.0 5:1.0 6:0.0 
-0.0 1.0 1:1.0 2:1.0 3:0.0 4:0.0 5:0.0 6:0.0 
-0.0 1.0 1:0.0 2:2.0 3:0.0 4:0.0 5:2.0 6:0.0 
-0.0 1.0 1:0.0 2:0.0 3:1.0 4:0.0 5:2.0 6:0.0 
-0.0 1.0 1:0.0 2:1.0 3:0.0 4:0.0 5:0.0 6:0.0 
-0.0 1.0 1:2.0 2:0.0 3:0.0 4:0.0 5:1.0 6:0.0 
-0.0 1.0 1:0.0 2:0.0 3:1.0 4:0.0 5:1.0 6:0.0 
-0.0 1.0 1:1.0 2:0.0 3:0.0 4:0.0 5:1.0 6:0.0 
-0.0 1.0 1:0.0 2:1.0 3:0.0 4:0.0 5:0.0 6:0.0 
-0.0 1.0 1:0.0 2:1.0 3:0.0 4:0.0 5:0.0 6:0.0 
-0.0 1.0 1:1.0 2:1.0 3:0.0 4:0.0 5:2.0 6:0.0 
-0.0 1.0 1:2.0 2:1.0 3:0.0 4:0.0 5:3.0 6:0.0 
-0.0 1.0 1:0.0 2:1.0 3:0.0 4:0.0 5:2.0 6:0.0 
-0.0 1.0 1:0.0 2:1.0 3:0.0 4:0.0 5:2.0 6:0.0 
-0.0 1.0 1:0.0 2:0.0 3:0.0 4:0.0 5:2.0 6:0.0 
-0.0 1.0 1:3.0 2:2.0 3:0.0 4:0.0 5:1.0 6:0.0 
-0.0 1.0 1:0.0 2:0.0 3:0.0 4:0.0 5:1.0 6:0.0 
-0.0 1.0 1:1.0 2:0.0 3:0.0 4:0.0 5:0.0 6:0.0 
-0.0 1.0 1:0.0 2:1.0 3:0.0 4:0.0 5:3.0 6:0.0 
-0.0 1.0 1:1.0 2:1.0 3:0.0 4:0.0 5:1.0 6:0.0 
-0.0 1.0 1:2.0 2:0.0 3:0.0 4:0.0 5:1.0 6:0.0 
-0.0 1.0 1:0.0 2:2.0 3:0.0 4:0.0 5:1.0 6:0.0 
-0.0 1.0 1:1.0 2:0.0 3:0.0 4:0.0 5:6.0 6:0.0 
-0.0 1.0 1:1.0 2:0.0 3:0.0 4:0.0 5:4.0 6:0.0 
-0.0 1.0 1:0.0 2:2.0 3:0.0 4:0.0 5:0.0 6:0.0 
-0.0 1.0 1:1.0 2:0.0 3:0.0 4:0.0 5:1.0 6:0.0 
-0.0 1.0 1:2.0 2:2.0 3:0.0 4:0.0 5:2.0 6:0.0 
-0.0 1.0 1:2.0 2:0.0 3:0.0 4:0.0 5:1.0 6:0.0 
-0.0 1.0 1:0.0 2:0.0 3:3.0 4:0.0 5:1.0 6:0.0 
-0.0 1.0 1:1.0 2:0.0 3:0.0 4:0.0 5:2.0 6:0.0 
-0.0 1.0 1:0.0 2:0.0 3:0.0 4:0.0 5:0.0 6:0.0 
-0.0 1.0 1:0.0 2:1.0 3:0.0 4:0.0 5:1.0 6:0.0 
-0.0 1.0 1:1.0 2:0.0 3:0.0 4:0.0 5:1.0 6:0.0 
-0.0 1.0 1:1.0 2:0.0 3:0.0 4:0.0 5:3.0 6:0.0 
-1.0 1.0 1:3.0 2:3.0 3:0.0 4:0.0 5:2.0 6:0.0 
-1.0 1.0 1:3.0 2:2.0 3:0.0 4:0.0 5:0.0 6:0.0 
-1.0 1.0 1:3.0 2:0.0 3:0.0 4:0.0 5:2.0 6:0.0 
-1.0 1.0 1:0.0 2:0.0 3:0.0 4:0.0 5:4.0 6:0.0 
-1.0 1.0 1:1.0 2:0.0 3:0.0 4:0.0 5:2.0 6:0.0 
-1.0 1.0 1:1.0 2:1.0 3:0.0 4:0.0 5:3.0 6:0.0 
-1.0 1.0 1:1.0 2:2.0 3:0.0 4:0.0 5:1.0 6:0.0 
-1.0 1.0 1:3.0 2:0.0 3:0.0 4:0.0 5:3.0 6:0.0 
-1.0 1.0 1:1.0 2:0.0 3:0.0 4:0.0 5:2.0 6:0.0 
-1.0 1.0 1:0.0 2:2.0 3:0.0 4:0.0 5:3.0 6:0.0 
-1.0 1.0 1:3.0 2:0.0 3:0.0 4:1.0 5:0.0 6:0.0 
-1.0 1.0 1:1.0 2:1.0 3:0.0 4:0.0 5:2.0 6:0.0 
-1.0 1.0 1:1.0 2:0.0 3:0.0 4:0.0 5:0.0 6:0.0 
-1.0 1.0 1:1.0 2:0.0 3:0.0 4:0.0 5:0.0 6:0.0 
-1.0 1.0 1:3.0 2:0.0 3:0.0 4:0.0 5:2.0 6:0.0 
-1.0 1.0 1:0.0 2:0.0 3:0.0 4:0.0 5:2.0 6:0.0 
-1.0 1.0 1:2.0 2:2.0 3:0.0 4:0.0 5:2.0 6:0.0 
-1.0 1.0 1:1.0 2:0.0 3:0.0 4:0.0 5:0.0 6:0.0 
-1.0 1.0 1:0.0 2:0.0 3:1.0 4:0.0 5:0.0 6:0.0 
-1.0 1.0 1:1.0 2:0.0 3:0.0 4:0.0 5:0.0 6:0.0 
-1.0 1.0 1:1.0 2:0.0 3:0.0 4:0.0 5:2.0 6:0.0 
-1.0 1.0 1:0.0 2:1.0 3:0.0 4:0.0 5:1.0 6:0.0 
-1.0 1.0 1:0.0 2:3.0 3:0.0 4:0.0 5:1.0 6:0.0 
-1.0 1.0 1:0.0 2:1.0 3:0.0 4:0.0 5:0.0 6:0.0 
-1.0 1.0 1:1.0 2:2.0 3:0.0 4:0.0 5:1.0 6:0.0 
-1.0 1.0 1:1.0 2:0.0 3:0.0 4:0.0 5:2.0 6:0.0 
-1.0 1.0 1:1.0 2:2.0 3:0.0 4:0.0 5:0.0 6:0.0 
-1.0 1.0 1:3.0 2:1.0 3:0.0 4:0.0 5:0.0 6:0.0 
-1.0 1.0 1:1.0 2:1.0 3:0.0 4:1.0 5:0.0 6:0.0 
-1.0 1.0 1:3.0 2:1.0 3:0.0 4:0.0 5:3.0 6:0.0 
-1.0 1.0 1:0.0 2:0.0 3:1.0 4:0.0 5:0.0 6:0.0 
-1.0 1.0 1:0.0 2:0.0 3:2.0 4:0.0 5:0.0 6:0.0 
-1.0 1.0 1:1.0 2:1.0 3:0.0 4:0.0 5:1.0 6:0.0 
-1.0 1.0 1:4.0 2:0.0 3:0.0 4:0.0 5:1.0 6:0.0 
-1.0 1.0 1:1.0 2:0.0 3:0.0 4:0.0 5:1.0 6:0.0 
-1.0 1.0 1:2.0 2:2.0 3:0.0 4:0.0 5:0.0 6:0.0 
-1.0 1.0 1:0.0 2:1.0 3:0.0 4:0.0 5:5.0 6:0.0 
-1.0 1.0 1:0.0 2:1.0 3:0.0 4:0.0 5:1.0 6:0.0 
-1.0 1.0 1:1.0 2:3.0 3:0.0 4:0.0 5:2.0 6:0.0 
-1.0 1.0 1:0.0 2:0.0 3:3.0 4:0.0 5:2.0 6:0.0 
-1.0 1.0 1:0.0 2:0.0 3:0.0 4:0.0 5:0.0 6:0.0 
-1.0 1.0 1:0.0 2:1.0 3:0.0 4:0.0 5:1.0 6:0.0 
-1.0 1.0 1:1.0 2:2.0 3:0.0 4:0.0 5:1.0 6:0.0 
-1.0 1.0 1:1.0 2:0.0 3:0.0 4:1.0 5:1.0 6:0.0 
-1.0 1.0 1:0.0 2:1.0 3:0.0 4:0.0 5:0.0 6:0.0 
-1.0 1.0 1:1.0 2:0.0 3:0.0 4:0.0 5:0.0 6:1.0 
-1.0 1.0 1:0.0 2:1.0 3:0.0 4:0.0 5:0.0 6:0.0 
-1.0 1.0 1:0.0 2:1.0 3:0.0 4:0.0 5:0.0 6:0.0 
-1.0 1.0 1:0.0 2:2.0 3:0.0 4:0.0 5:2.0 6:0.0 
-1.0 1.0 1:1.0 2:1.0 3:0.0 4:1.0 5:1.0 6:0.0 
-1.0 1.0 1:1.0 2:0.0 3:0.0 4:0.0 5:1.0 6:0.0 
-1.0 1.0 1:0.0 2:1.0 3:0.0 4:0.0 5:0.0 6:0.0 
-1.0 1.0 1:0.0 2:0.0 3:2.0 4:0.0 5:0.0 6:1.0 
-1.0 1.0 1:0.0 2:0.0 3:1.0 4:0.0 5:0.0 6:0.0 
-1.0 1.0 1:0.0 2:0.0 3:1.0 4:0.0 5:3.0 6:0.0 
-1.0 1.0 1:0.0 2:1.0 3:0.0 4:0.0 5:0.0 6:0.0 
-1.0 1.0 1:0.0 2:4.0 3:0.0 4:0.0 5:2.0 6:0.0 
-1.0 1.0 1:1.0 2:2.0 3:0.0 4:0.0 5:3.0 6:0.0 
-1.0 1.0 1:0.0 2:1.0 3:0.0 4:0.0 5:0.0 6:0.0 
-1.0 1.0 1:2.0 2:0.0 3:0.0 4:0.0 5:1.0 6:0.0 
-1.0 1.0 1:0.0 2:0.0 3:0.0 4:0.0 5:1.0 6:0.0 
-1.0 1.0 1:2.0 2:0.0 3:0.0 4:0.0 5:2.0 6:0.0 
-1.0 1.0 1:0.0 2:0.0 3:0.0 4:0.0 5:1.0 6:0.0 
-1.0 1.0 1:0.0 2:1.0 3:0.0 4:0.0 5:3.0 6:0.0 
-1.0 1.0 1:1.0 2:1.0 3:0.0 4:0.0 5:2.0 6:0.0 
-1.0 1.0 1:1.0 2:1.0 3:0.0 4:0.0 5:1.0 6:0.0 
-1.0 1.0 1:1.0 2:1.0 3:0.0 4:1.0 5:1.0 6:0.0 
-1.0 1.0 1:1.0 2:0.0 3:0.0 4:0.0 5:3.0 6:0.0 
-1.0 1.0 1:4.0 2:0.0 3:0.0 4:0.0 5:3.0 6:0.0 
-1.0 1.0 1:1.0 2:1.0 3:0.0 4:0.0 5:1.0 6:0.0 
-1.0 1.0 1:0.0 2:1.0 3:0.0 4:0.0 5:0.0 6:0.0 
-1.0 1.0 1:1.0 2:0.0 3:0.0 4:0.0 5:4.0 6:0.0 
-1.0 1.0 1:1.0 2:0.0 3:0.0 4:0.0 5:3.0 6:0.0 
-1.0 1.0 1:0.0 2:0.0 3:2.0 4:0.0 5:1.0 6:0.0 
-1.0 1.0 1:0.0 2:2.0 3:0.0 4:0.0 5:3.0 6:0.0 
-1.0 1.0 1:3.0 2:1.0 3:0.0 4:1.0 5:2.0 6:0.0 
-1.0 1.0 1:0.0 2:0.0 3:0.0 4:0.0 5:0.0 6:0.0 
-1.0 1.0 1:0.0 2:0.0 3:0.0 4:0.0 5:0.0 6:0.0 
-1.0 1.0 1:1.0 2:1.0 3:0.0 4:0.0 5:2.0 6:0.0 
-1.0 1.0 1:0.0 2:1.0 3:0.0 4:0.0 5:1.0 6:0.0 
-1.0 1.0 1:0.0 2:0.0 3:0.0 4:0.0 5:2.0 6:0.0 
-1.0 1.0 1:2.0 2:1.0 3:0.0 4:0.0 5:3.0 6:0.0 
-1.0 1.0 1:1.0 2:0.0 3:0.0 4:0.0 5:4.0 6:0.0 
-1.0 1.0 1:0.0 2:0.0 3:1.0 4:0.0 5:1.0 6:0.0 
-1.0 1.0 1:4.0 2:2.0 3:0.0 4:0.0 5:3.0 6:0.0 
-1.0 1.0 1:2.0 2:0.0 3:0.0 4:0.0 5:4.0 6:0.0 
-1.0 1.0 1:2.0 2:1.0 3:0.0 4:0.0 5:0.0 6:1.0 
-1.0 1.0 1:1.0 2:0.0 3:0.0 4:0.0 5:1.0 6:0.0 
-1.0 1.0 1:4.0 2:0.0 3:0.0 4:0.0 5:1.0 6:0.0 
-1.0 1.0 1:1.0 2:2.0 3:0.0 4:0.0 5:0.0 6:0.0 
-1.0 1.0 1:1.0 2:2.0 3:0.0 4:0.0 5:0.0 6:0.0 
-1.0 1.0 1:1.0 2:0.0 3:0.0 4:0.0 5:1.0 6:0.0 
-1.0 1.0 1:1.0 2:0.0 3:0.0 4:0.0 5:2.0 6:0.0 
-1.0 1.0 1:2.0 2:1.0 3:0.0 4:0.0 5:0.0 6:0.0 
-1.0 1.0 1:3.0 2:0.0 3:0.0 4:0.0 5:4.0 6:0.0 
-1.0 1.0 1:1.0 2:0.0 3:0.0 4:0.0 5:3.0 6:0.0 
-1.0 1.0 1:1.0 2:1.0 3:0.0 4:0.0 5:1.0 6:0.0 
-1.0 1.0 1:0.0 2:0.0 3:1.0 4:0.0 5:2.0 6:0.0 
-1.0 1.0 1:2.0 2:0.0 3:0.0 4:0.0 5:3.0 6:0.0 
-1.0 1.0 1:1.0 2:2.0 3:0.0 4:0.0 5:4.0 6:0.0 
-1.0 1.0 1:1.0 2:0.0 3:0.0 4:0.0 5:1.0 6:0.0 
-1.0 1.0 1:0.0 2:1.0 3:0.0 4:0.0 5:0.0 6:0.0 
-1.0 1.0 1:0.0 2:1.0 3:0.0 4:0.0 5:2.0 6:0.0 
-1.0 1.0 1:2.0 2:1.0 3:0.0 4:0.0 5:0.0 6:0.0 
-1.0 1.0 1:1.0 2:0.0 3:0.0 4:0.0 5:0.0 6:0.0 
-1.0 1.0 1:2.0 2:0.0 3:0.0 4:1.0 5:0.0 6:0.0 
-1.0 1.0 1:0.0 2:2.0 3:0.0 4:0.0 5:2.0 6:0.0 
-1.0 1.0 1:0.0 2:0.0 3:1.0 4:0.0 5:1.0 6:0.0 
-1.0 1.0 1:2.0 2:3.0 3:0.0 4:0.0 5:2.0 6:0.0 
-1.0 1.0 1:3.0 2:1.0 3:0.0 4:0.0 5:3.0 6:0.0 
-1.0 1.0 1:1.0 2:1.0 3:0.0 4:0.0 5:1.0 6:0.0 
-1.0 1.0 1:0.0 2:1.0 3:0.0 4:0.0 5:1.0 6:0.0 
-1.0 1.0 1:3.0 2:0.0 3:0.0 4:0.0 5:0.0 6:0.0 
-1.0 1.0 1:1.0 2:0.0 3:0.0 4:0.0 5:0.0 6:0.0 
-1.0 1.0 1:0.0 2:1.0 3:0.0 4:0.0 5:2.0 6:0.0 
-1.0 1.0 1:1.0 2:0.0 3:0.0 4:0.0 5:1.0 6:0.0 
-1.0 1.0 1:1.0 2:0.0 3:0.0 4:0.0 5:1.0 6:0.0 
-1.0 1.0 1:3.0 2:0.0 3:0.0 4:0.0 5:0.0 6:0.0 
-1.0 1.0 1:2.0 2:2.0 3:0.0 4:1.0 5:3.0 6:0.0 
-1.0 1.0 1:0.0 2:2.0 3:0.0 4:0.0 5:2.0 6:0.0 
-1.0 1.0 1:0.0 2:0.0 3:1.0 4:0.0 5:2.0 6:0.0 
-1.0 1.0 1:1.0 2:1.0 3:0.0 4:0.0 5:0.0 6:0.0 
-1.0 1.0 1:0.0 2:0.0 3:0.0 4:0.0 5:0.0 6:0.0 
-1.0 1.0 1:2.0 2:0.0 3:0.0 4:0.0 5:0.0 6:1.0 
-1.0 1.0 1:2.0 2:0.0 3:0.0 4:0.0 5:0.0 6:1.0 
-1.0 1.0 1:3.0 2:0.0 3:0.0 4:0.0 5:2.0 6:0.0 
-1.0 1.0 1:0.0 2:1.0 3:0.0 4:0.0 5:0.0 6:0.0 
-1.0 1.0 1:0.0 2:1.0 3:0.0 4:0.0 5:0.0 6:0.0 
-1.0 1.0 1:0.0 2:1.0 3:0.0 4:0.0 5:1.0 6:0.0 
-1.0 1.0 1:0.0 2:2.0 3:0.0 4:0.0 5:2.0 6:0.0 
-1.0 1.0 1:2.0 2:2.0 3:0.0 4:0.0 5:2.0 6:0.0 
-1.0 1.0 1:1.0 2:0.0 3:0.0 4:0.0 5:0.0 6:0.0 
-1.0 1.0 1:2.0 2:1.0 3:0.0 4:0.0 5:2.0 6:0.0 
-1.0 1.0 1:2.0 2:1.0 3:0.0 4:0.0 5:3.0 6:0.0 
-1.0 1.0 1:1.0 2:1.0 3:0.0 4:0.0 5:2.0 6:0.0 
-1.0 1.0 1:1.0 2:3.0 3:0.0 4:0.0 5:3.0 6:0.0 
-1.0 1.0 1:0.0 2:0.0 3:0.0 4:0.0 5:4.0 6:0.0 
-1.0 1.0 1:1.0 2:2.0 3:0.0 4:0.0 5:2.0 6:0.0 
-1.0 1.0 1:0.0 2:0.0 3:0.0 4:1.0 5:0.0 6:0.0 
-1.0 1.0 1:1.0 2:0.0 3:0.0 4:0.0 5:0.0 6:0.0 
-1.0 1.0 1:1.0 2:2.0 3:0.0 4:0.0 5:2.0 6:0.0 
-1.0 1.0 1:0.0 2:0.0 3:1.0 4:0.0 5:1.0 6:0.0 
-1.0 1.0 1:0.0 2:1.0 3:0.0 4:0.0 5:1.0 6:0.0 
-1.0 1.0 1:2.0 2:3.0 3:0.0 4:0.0 5:4.0 6:0.0 
-1.0 1.0 1:1.0 2:1.0 3:0.0 4:0.0 5:2.0 6:0.0 
-1.0 1.0 1:1.0 2:1.0 3:0.0 4:0.0 5:3.0 6:0.0 
-1.0 1.0 1:0.0 2:0.0 3:1.0 4:0.0 5:1.0 6:0.0 
-1.0 1.0 1:1.0 2:2.0 3:0.0 4:0.0 5:2.0 6:0.0 
-1.0 1.0 1:1.0 2:0.0 3:0.0 4:0.0 5:1.0 6:0.0 
-1.0 1.0 1:0.0 2:4.0 3:0.0 4:0.0 5:1.0 6:0.0 
-1.0 1.0 1:3.0 2:1.0 3:0.0 4:1.0 5:1.0 6:0.0 
-1.0 1.0 1:0.0 2:0.0 3:0.0 4:0.0 5:1.0 6:0.0 
-1.0 1.0 1:0.0 2:1.0 3:0.0 4:0.0 5:3.0 6:0.0 
-1.0 1.0 1:2.0 2:1.0 3:0.0 4:0.0 5:2.0 6:0.0 
-1.0 1.0 1:1.0 2:0.0 3:0.0 4:0.0 5:7.0 6:0.0 
-1.0 1.0 1:3.0 2:0.0 3:0.0 4:1.0 5:0.0 6:0.0 
-1.0 1.0 1:1.0 2:1.0 3:0.0 4:0.0 5:3.0 6:0.0 
-1.0 1.0 1:0.0 2:2.0 3:0.0 4:0.0 5:0.0 6:0.0 
-1.0 1.0 1:1.0 2:0.0 3:0.0 4:0.0 5:0.0 6:0.0 
-1.0 1.0 1:0.0 2:1.0 3:0.0 4:0.0 5:0.0 6:0.0 
-1.0 1.0 1:5.0 2:0.0 3:0.0 4:0.0 5:0.0 6:0.0 
-1.0 1.0 1:0.0 2:1.0 3:0.0 4:0.0 5:1.0 6:0.0 
-1.0 1.0 1:1.0 2:0.0 3:0.0 4:0.0 5:6.0 6:0.0 
-1.0 1.0 1:0.0 2:0.0 3:0.0 4:0.0 5:0.0 6:0.0 
-1.0 1.0 1:1.0 2:0.0 3:0.0 4:0.0 5:4.0 6:0.0 
-1.0 1.0 1:0.0 2:2.0 3:0.0 4:0.0 5:1.0 6:0.0 
-1.0 1.0 1:1.0 2:1.0 3:0.0 4:0.0 5:2.0 6:0.0 
-1.0 1.0 1:1.0 2:2.0 3:0.0 4:1.0 5:3.0 6:0.0 
-1.0 1.0 1:2.0 2:1.0 3:0.0 4:0.0 5:1.0 6:0.0 
-1.0 1.0 1:0.0 2:1.0 3:0.0 4:0.0 5:0.0 6:0.0 
-1.0 1.0 1:1.0 2:0.0 3:0.0 4:0.0 5:1.0 6:0.0 
-1.0 1.0 1:0.0 2:0.0 3:1.0 4:0.0 5:2.0 6:0.0 
-1.0 1.0 1:0.0 2:2.0 3:0.0 4:0.0 5:2.0 6:0.0 
-1.0 1.0 1:0.0 2:2.0 3:0.0 4:0.0 5:2.0 6:0.0 
-1.0 1.0 1:0.0 2:2.0 3:0.0 4:0.0 5:2.0 6:0.0 
-1.0 1.0 1:0.0 2:1.0 3:0.0 4:0.0 5:1.0 6:0.0 
-1.0 1.0 1:0.0 2:1.0 3:0.0 4:0.0 5:0.0 6:0.0 
-1.0 1.0 1:0.0 2:1.0 3:0.0 4:0.0 5:4.0 6:0.0 
-1.0 1.0 1:0.0 2:1.0 3:0.0 4:0.0 5:0.0 6:0.0 
-1.0 1.0 1:0.0 2:1.0 3:0.0 4:0.0 5:2.0 6:0.0 
-1.0 1.0 1:1.0 2:2.0 3:0.0 4:0.0 5:2.0 6:0.0 
-1.0 1.0 1:0.0 2:1.0 3:0.0 4:0.0 5:1.0 6:0.0 
-1.0 1.0 1:1.0 2:1.0 3:0.0 4:0.0 5:2.0 6:0.0 
-1.0 1.0 1:0.0 2:0.0 3:1.0 4:0.0 5:0.0 6:0.0 
-1.0 1.0 1:0.0 2:3.0 3:0.0 4:0.0 5:3.0 6:0.0 
-1.0 1.0 1:1.0 2:0.0 3:0.0 4:0.0 5:0.0 6:0.0 
-1.0 1.0 1:0.0 2:0.0 3:2.0 4:0.0 5:1.0 6:0.0 
-1.0 1.0 1:2.0 2:0.0 3:0.0 4:0.0 5:0.0 6:0.0 
-1.0 1.0 1:0.0 2:0.0 3:0.0 4:0.0 5:1.0 6:0.0 
-1.0 1.0 1:2.0 2:1.0 3:0.0 4:0.0 5:3.0 6:0.0 
-1.0 1.0 1:2.0 2:0.0 3:0.0 4:0.0 5:0.0 6:0.0 
-1.0 1.0 1:2.0 2:0.0 3:0.0 4:0.0 5:0.0 6:0.0 
-1.0 1.0 1:0.0 2:1.0 3:0.0 4:0.0 5:2.0 6:0.0 
-1.0 1.0 1:0.0 2:1.0 3:0.0 4:0.0 5:1.0 6:0.0 
-1.0 1.0 1:0.0 2:0.0 3:1.0 4:0.0 5:1.0 6:0.0 
-1.0 1.0 1:0.0 2:1.0 3:0.0 4:0.0 5:0.0 6:0.0 
-1.0 1.0 1:0.0 2:0.0 3:0.0 4:0.0 5:0.0 6:0.0 
-1.0 1.0 1:0.0 2:0.0 3:0.0 4:0.0 5:3.0 6:0.0 
-1.0 1.0 1:0.0 2:0.0 3:0.0 4:0.0 5:1.0 6:0.0 
-1.0 1.0 1:1.0 2:1.0 3:0.0 4:0.0 5:5.0 6:0.0 
-1.0 1.0 1:0.0 2:0.0 3:0.0 4:0.0 5:1.0 6:0.0 
-1.0 1.0 1:0.0 2:0.0 3:0.0 4:0.0 5:0.0 6:0.0 
-1.0 1.0 1:2.0 2:0.0 3:0.0 4:0.0 5:1.0 6:0.0 
-1.0 1.0 1:0.0 2:1.0 3:0.0 4:0.0 5:1.0 6:0.0 
-1.0 1.0 1:0.0 2:0.0 3:0.0 4:0.0 5:0.0 6:0.0 
-1.0 1.0 1:0.0 2:0.0 3:0.0 4:0.0 5:0.0 6:0.0 
-1.0 1.0 1:0.0 2:0.0 3:0.0 4:0.0 5:0.0 6:0.0 
-1.0 1.0 1:1.0 2:1.0 3:0.0 4:0.0 5:0.0 6:1.0 
-1.0 1.0 1:0.0 2:0.0 3:0.0 4:0.0 5:1.0 6:0.0 
-1.0 1.0 1:1.0 2:1.0 3:0.0 4:0.0 5:1.0 6:0.0 
-1.0 1.0 1:2.0 2:3.0 3:0.0 4:0.0 5:1.0 6:0.0 
-1.0 1.0 1:0.0 2:0.0 3:0.0 4:0.0 5:3.0 6:0.0 
-1.0 1.0 1:0.0 2:0.0 3:0.0 4:0.0 5:0.0 6:0.0 
-1.0 1.0 1:1.0 2:0.0 3:0.0 4:0.0 5:2.0 6:0.0 
-1.0 1.0 1:1.0 2:0.0 3:0.0 4:0.0 5:0.0 6:0.0 
-1.0 1.0 1:0.0 2:1.0 3:0.0 4:0.0 5:0.0 6:0.0 
-1.0 1.0 1:1.0 2:1.0 3:0.0 4:0.0 5:4.0 6:0.0 
-1.0 1.0 1:1.0 2:0.0 3:0.0 4:0.0 5:1.0 6:0.0 
-1.0 1.0 1:1.0 2:0.0 3:0.0 4:0.0 5:1.0 6:0.0 
-1.0 1.0 1:1.0 2:1.0 3:0.0 4:0.0 5:1.0 6:0.0 
-1.0 1.0 1:0.0 2:0.0 3:1.0 4:0.0 5:1.0 6:0.0 
-1.0 1.0 1:3.0 2:2.0 3:0.0 4:0.0 5:1.0 6:0.0 
-1.0 1.0 1:0.0 2:1.0 3:0.0 4:0.0 5:0.0 6:0.0 
-1.0 1.0 1:1.0 2:0.0 3:0.0 4:0.0 5:0.0 6:0.0 
-1.0 1.0 1:1.0 2:0.0 3:0.0 4:0.0 5:0.0 6:0.0 
-1.0 1.0 1:1.0 2:0.0 3:0.0 4:0.0 5:0.0 6:0.0 
-1.0 1.0 1:1.0 2:1.0 3:0.0 4:0.0 5:2.0 6:0.0 
-1.0 1.0 1:1.0 2:0.0 3:0.0 4:0.0 5:0.0 6:0.0 
-1.0 1.0 1:0.0 2:1.0 3:0.0 4:0.0 5:0.0 6:1.0 
-1.0 1.0 1:1.0 2:2.0 3:0.0 4:0.0 5:1.0 6:0.0 
-1.0 1.0 1:0.0 2:1.0 3:0.0 4:0.0 5:0.0 6:0.0 
-1.0 1.0 1:0.0 2:0.0 3:1.0 4:0.0 5:1.0 6:0.0 
-1.0 1.0 1:0.0 2:0.0 3:1.0 4:0.0 5:3.0 6:0.0 
-1.0 1.0 1:0.0 2:1.0 3:0.0 4:0.0 5:3.0 6:0.0 
-1.0 1.0 1:0.0 2:1.0 3:0.0 4:0.0 5:0.0 6:0.0 
-1.0 1.0 1:1.0 2:1.0 3:0.0 4:0.0 5:2.0 6:0.0 
-1.0 1.0 1:0.0 2:1.0 3:0.0 4:0.0 5:0.0 6:0.0 
-1.0 1.0 1:0.0 2:0.0 3:0.0 4:0.0 5:1.0 6:0.0 
-1.0 1.0 1:0.0 2:0.0 3:0.0 4:0.0 5:2.0 6:0.0 
-1.0 1.0 1:0.0 2:1.0 3:0.0 4:0.0 5:0.0 6:0.0 
-1.0 1.0 1:0.0 2:1.0 3:0.0 4:0.0 5:3.0 6:0.0 
-1.0 1.0 1:3.0 2:1.0 3:0.0 4:1.0 5:4.0 6:0.0 
-1.0 1.0 1:1.0 2:0.0 3:0.0 4:0.0 5:0.0 6:0.0 
-1.0 1.0 1:0.0 2:2.0 3:0.0 4:0.0 5:3.0 6:0.0 
-1.0 1.0 1:1.0 2:0.0 3:0.0 4:0.0 5:1.0 6:0.0 
-1.0 1.0 1:2.0 2:0.0 3:0.0 4:0.0 5:3.0 6:0.0 
-1.0 1.0 1:1.0 2:0.0 3:0.0 4:0.0 5:3.0 6:0.0 
-1.0 1.0 1:3.0 2:1.0 3:0.0 4:0.0 5:0.0 6:0.0 
-1.0 1.0 1:0.0 2:0.0 3:0.0 4:0.0 5:0.0 6:0.0 
-1.0 1.0 1:1.0 2:0.0 3:0.0 4:0.0 5:1.0 6:0.0 
-1.0 1.0 1:2.0 2:1.0 3:0.0 4:0.0 5:4.0 6:0.0 
-1.0 1.0 1:1.0 2:0.0 3:0.0 4:0.0 5:0.0 6:0.0 
-1.0 1.0 1:1.0 2:1.0 3:0.0 4:0.0 5:1.0 6:0.0 
-1.0 1.0 1:2.0 2:0.0 3:0.0 4:0.0 5:0.0 6:0.0 
-1.0 1.0 1:3.0 2:1.0 3:0.0 4:0.0 5:0.0 6:0.0 
-1.0 1.0 1:1.0 2:0.0 3:0.0 4:0.0 5:1.0 6:0.0 
-1.0 1.0 1:1.0 2:0.0 3:0.0 4:0.0 5:1.0 6:0.0 
-1.0 1.0 1:0.0 2:1.0 3:0.0 4:0.0 5:0.0 6:0.0 
-1.0 1.0 1:0.0 2:0.0 3:1.0 4:0.0 5:1.0 6:0.0 
-1.0 1.0 1:2.0 2:1.0 3:0.0 4:0.0 5:2.0 6:0.0 
-1.0 1.0 1:0.0 2:1.0 3:0.0 4:0.0 5:1.0 6:0.0 
-1.0 1.0 1:1.0 2:0.0 3:0.0 4:0.0 5:0.0 6:1.0 
-1.0 1.0 1:0.0 2:0.0 3:0.0 4:0.0 5:2.0 6:0.0 
-1.0 1.0 1:1.0 2:0.0 3:0.0 4:0.0 5:2.0 6:0.0 
-1.0 1.0 1:0.0 2:1.0 3:0.0 4:0.0 5:0.0 6:0.0 
-1.0 1.0 1:1.0 2:0.0 3:0.0 4:0.0 5:2.0 6:0.0 
-1.0 1.0 1:0.0 2:1.0 3:0.0 4:0.0 5:0.0 6:0.0 
-1.0 1.0 1:0.0 2:1.0 3:0.0 4:0.0 5:0.0 6:0.0 
-1.0 1.0 1:3.0 2:0.0 3:0.0 4:0.0 5:2.0 6:0.0 
-1.0 1.0 1:1.0 2:0.0 3:0.0 4:0.0 5:0.0 6:1.0 
-1.0 1.0 1:0.0 2:0.0 3:1.0 4:0.0 5:3.0 6:0.0 
-1.0 1.0 1:1.0 2:0.0 3:0.0 4:0.0 5:0.0 6:0.0 
-1.0 1.0 1:1.0 2:0.0 3:0.0 4:0.0 5:0.0 6:1.0 
-1.0 1.0 1:0.0 2:1.0 3:0.0 4:0.0 5:0.0 6:0.0 
-1.0 1.0 1:0.0 2:0.0 3:0.0 4:0.0 5:0.0 6:0.0 
-1.0 1.0 1:0.0 2:0.0 3:0.0 4:0.0 5:0.0 6:1.0 
-1.0 1.0 1:2.0 2:0.0 3:0.0 4:0.0 5:0.0 6:0.0 
-1.0 1.0 1:0.0 2:0.0 3:0.0 4:0.0 5:0.0 6:0.0 
-1.0 1.0 1:1.0 2:1.0 3:0.0 4:0.0 5:0.0 6:0.0 
-1.0 1.0 1:1.0 2:0.0 3:0.0 4:0.0 5:2.0 6:0.0 
-1.0 1.0 1:0.0 2:1.0 3:0.0 4:0.0 5:2.0 6:0.0 
-1.0 1.0 1:0.0 2:1.0 3:0.0 4:0.0 5:0.0 6:0.0 
-1.0 1.0 1:1.0 2:0.0 3:0.0 4:0.0 5:1.0 6:0.0 
-1.0 1.0 1:2.0 2:0.0 3:0.0 4:0.0 5:0.0 6:0.0 
-1.0 1.0 1:0.0 2:0.0 3:1.0 4:0.0 5:2.0 6:0.0 
-1.0 1.0 1:2.0 2:0.0 3:0.0 4:0.0 5:0.0 6:0.0 
-1.0 1.0 1:2.0 2:1.0 3:0.0 4:0.0 5:0.0 6:0.0 
-1.0 1.0 1:0.0 2:0.0 3:0.0 4:0.0 5:1.0 6:0.0 
-1.0 1.0 1:2.0 2:1.0 3:0.0 4:0.0 5:0.0 6:0.0 
-1.0 1.0 1:0.0 2:0.0 3:0.0 4:0.0 5:0.0 6:0.0 
-1.0 1.0 1:0.0 2:1.0 3:0.0 4:0.0 5:0.0 6:0.0 
-1.0 1.0 1:0.0 2:0.0 3:0.0 4:0.0 5:1.0 6:0.0 
-1.0 1.0 1:0.0 2:0.0 3:0.0 4:0.0 5:0.0 6:0.0 
-1.0 1.0 1:0.0 2:0.0 3:0.0 4:0.0 5:1.0 6:0.0 
-1.0 1.0 1:0.0 2:0.0 3:2.0 4:0.0 5:1.0 6:0.0 
-1.0 1.0 1:0.0 2:1.0 3:0.0 4:0.0 5:1.0 6:0.0 
-1.0 1.0 1:0.0 2:0.0 3:0.0 4:0.0 5:4.0 6:0.0 
-1.0 1.0 1:0.0 2:0.0 3:0.0 4:0.0 5:1.0 6:0.0 
-1.0 1.0 1:0.0 2:1.0 3:0.0 4:0.0 5:1.0 6:0.0 
-1.0 1.0 1:0.0 2:0.0 3:0.0 4:0.0 5:2.0 6:0.0 
-1.0 1.0 1:0.0 2:0.0 3:1.0 4:0.0 5:1.0 6:0.0 
-1.0 1.0 1:2.0 2:1.0 3:0.0 4:0.0 5:2.0 6:0.0 
-1.0 1.0 1:1.0 2:0.0 3:0.0 4:0.0 5:1.0 6:0.0 
-1.0 1.0 1:0.0 2:3.0 3:0.0 4:1.0 5:0.0 6:0.0 
-1.0 1.0 1:1.0 2:0.0 3:0.0 4:1.0 5:1.0 6:0.0 
-1.0 1.0 1:0.0 2:3.0 3:0.0 4:1.0 5:1.0 6:0.0 
-1.0 1.0 1:0.0 2:1.0 3:0.0 4:0.0 5:1.0 6:0.0 
-0.0 -1.0 1:1.0 2:1.0 3:0.0 4:0.0 5:0.0 6:0.0 
-0.0 -1.0 1:0.0 2:0.0 3:0.0 4:0.0 5:0.0 6:1.0 
-0.0 -1.0 1:0.0 2:2.0 3:0.0 4:0.0 5:0.0 6:0.0 
-0.0 -1.0 1:0.0 2:0.0 3:1.0 4:0.0 5:0.0 6:1.0 
-0.0 -1.0 1:2.0 2:0.0 3:0.0 4:0.0 5:0.0 6:3.0 
-0.0 -1.0 1:0.0 2:1.0 3:0.0 4:0.0 5:0.0 6:1.0 
-0.0 -1.0 1:0.0 2:0.0 3:0.0 4:0.0 5:0.0 6:0.0 
-0.0 -1.0 1:1.0 2:0.0 3:0.0 4:0.0 5:0.0 6:0.0 
-0.0 -1.0 1:0.0 2:0.0 3:0.0 4:0.0 5:0.0 6:0.0 
-0.0 -1.0 1:0.0 2:0.0 3:1.0 4:0.0 5:0.0 6:0.0 
-0.0 -1.0 1:0.0 2:0.0 3:0.0 4:0.0 5:0.0 6:1.0 
-0.0 -1.0 1:0.0 2:0.0 3:0.0 4:0.0 5:0.0 6:1.0 
-0.0 -1.0 1:0.0 2:1.0 3:0.0 4:0.0 5:0.0 6:2.0 
-0.0 -1.0 1:0.0 2:0.0 3:0.0 4:0.0 5:0.0 6:2.0 
-0.0 -1.0 1:1.0 2:0.0 3:0.0 4:0.0 5:0.0 6:2.0 
-0.0 -1.0 1:0.0 2:0.0 3:0.0 4:0.0 5:0.0 6:0.0 
-0.0 -1.0 1:0.0 2:1.0 3:0.0 4:0.0 5:0.0 6:1.0 
-0.0 -1.0 1:0.0 2:0.0 3:0.0 4:0.0 5:0.0 6:0.0 
-0.0 -1.0 1:0.0 2:0.0 3:0.0 4:0.0 5:0.0 6:0.0 
-0.0 -1.0 1:0.0 2:0.0 3:0.0 4:0.0 5:0.0 6:1.0 
-0.0 -1.0 1:0.0 2:0.0 3:0.0 4:0.0 5:0.0 6:0.0 
-0.0 -1.0 1:0.0 2:1.0 3:0.0 4:0.0 5:0.0 6:0.0 
-0.0 -1.0 1:2.0 2:0.0 3:0.0 4:0.0 5:0.0 6:2.0 
-0.0 -1.0 1:1.0 2:0.0 3:0.0 4:0.0 5:0.0 6:1.0 
-0.0 -1.0 1:2.0 2:0.0 3:0.0 4:0.0 5:1.0 6:0.0 
-0.0 -1.0 1:1.0 2:0.0 3:0.0 4:0.0 5:1.0 6:0.0 
-0.0 -1.0 1:1.0 2:0.0 3:0.0 4:1.0 5:0.0 6:0.0 
-0.0 -1.0 1:0.0 2:0.0 3:2.0 4:0.0 5:0.0 6:2.0 
-0.0 -1.0 1:0.0 2:0.0 3:0.0 4:0.0 5:0.0 6:0.0 
-0.0 -1.0 1:0.0 2:0.0 3:0.0 4:0.0 5:0.0 6:0.0 
-0.0 -1.0 1:0.0 2:0.0 3:0.0 4:0.0 5:0.0 6:0.0 
-0.0 -1.0 1:0.0 2:0.0 3:0.0 4:0.0 5:0.0 6:1.0 
-0.0 -1.0 1:1.0 2:0.0 3:0.0 4:0.0 5:0.0 6:0.0 
-0.0 -1.0 1:0.0 2:2.0 3:0.0 4:0.0 5:0.0 6:0.0 
-0.0 -1.0 1:0.0 2:0.0 3:0.0 4:0.0 5:0.0 6:0.0 
-0.0 -1.0 1:0.0 2:0.0 3:0.0 4:0.0 5:1.0 6:0.0 
-1.0 -1.0 1:1.0 2:1.0 3:0.0 4:0.0 5:1.0 6:0.0 
-1.0 -1.0 1:0.0 2:1.0 3:0.0 4:0.0 5:0.0 6:0.0 
-1.0 -1.0 1:0.0 2:0.0 3:0.0 4:0.0 5:0.0 6:0.0 
-1.0 -1.0 1:1.0 2:0.0 3:0.0 4:0.0 5:0.0 6:0.0 
-1.0 -1.0 1:0.0 2:0.0 3:0.0 4:0.0 5:0.0 6:0.0 
-1.0 -1.0 1:0.0 2:0.0 3:1.0 4:0.0 5:0.0 6:0.0 
-1.0 -1.0 1:0.0 2:0.0 3:0.0 4:0.0 5:0.0 6:1.0 
-1.0 -1.0 1:0.0 2:0.0 3:0.0 4:0.0 5:0.0 6:1.0 
-1.0 -1.0 1:0.0 2:0.0 3:2.0 4:0.0 5:0.0 6:2.0 
-1.0 -1.0 1:0.0 2:0.0 3:0.0 4:0.0 5:0.0 6:0.0 
-1.0 -1.0 1:0.0 2:2.0 3:0.0 4:0.0 5:0.0 6:0.0 
-1.0 -1.0 1:0.0 2:1.0 3:0.0 4:0.0 5:0.0 6:5.0 
-1.0 -1.0 1:1.0 2:0.0 3:0.0 4:0.0 5:0.0 6:2.0 
-1.0 -1.0 1:1.0 2:0.0 3:0.0 4:0.0 5:1.0 6:0.0 
-1.0 -1.0 1:1.0 2:0.0 3:0.0 4:0.0 5:0.0 6:2.0 
-1.0 -1.0 1:1.0 2:0.0 3:0.0 4:0.0 5:0.0 6:2.0 
-1.0 -1.0 1:0.0 2:2.0 3:0.0 4:0.0 5:0.0 6:0.0 
-1.0 -1.0 1:1.0 2:1.0 3:0.0 4:0.0 5:0.0 6:0.0 
-1.0 -1.0 1:1.0 2:1.0 3:0.0 4:0.0 5:0.0 6:4.0 
-1.0 -1.0 1:0.0 2:0.0 3:0.0 4:0.0 5:1.0 6:0.0 
-1.0 -1.0 1:0.0 2:0.0 3:0.0 4:0.0 5:0.0 6:1.0 
-1.0 -1.0 1:0.0 2:0.0 3:0.0 4:0.0 5:0.0 6:2.0 
-1.0 -1.0 1:5.0 2:0.0 3:0.0 4:0.0 5:0.0 6:1.0 
-1.0 -1.0 1:0.0 2:0.0 3:0.0 4:0.0 5:0.0 6:0.0 
-1.0 -1.0 1:1.0 2:0.0 3:0.0 4:0.0 5:0.0 6:0.0 
-1.0 -1.0 1:0.0 2:1.0 3:0.0 4:0.0 5:0.0 6:0.0 
-1.0 -1.0 1:0.0 2:0.0 3:0.0 4:0.0 5:0.0 6:0.0 
-1.0 -1.0 1:1.0 2:0.0 3:0.0 4:0.0 5:0.0 6:1.0 
-1.0 -1.0 1:0.0 2:0.0 3:1.0 4:0.0 5:0.0 6:2.0 
-1.0 -1.0 1:0.0 2:0.0 3:0.0 4:0.0 5:0.0 6:1.0 
-1.0 -1.0 1:0.0 2:0.0 3:0.0 4:0.0 5:0.0 6:0.0 
-1.0 -1.0 1:1.0 2:0.0 3:0.0 4:0.0 5:0.0 6:0.0 
-1.0 -1.0 1:0.0 2:0.0 3:1.0 4:0.0 5:0.0 6:0.0 
-1.0 -1.0 1:0.0 2:2.0 3:0.0 4:0.0 5:0.0 6:4.0 
-1.0 -1.0 1:1.0 2:0.0 3:0.0 4:0.0 5:0.0 6:1.0 
-1.0 -1.0 1:0.0 2:0.0 3:1.0 4:0.0 5:0.0 6:4.0 
-1.0 -1.0 1:0.0 2:0.0 3:0.0 4:0.0 5:0.0 6:2.0 
-1.0 -1.0 1:0.0 2:0.0 3:0.0 4:0.0 5:0.0 6:0.0 
-1.0 -1.0 1:0.0 2:0.0 3:1.0 4:0.0 5:0.0 6:1.0 
-1.0 -1.0 1:0.0 2:0.0 3:0.0 4:0.0 5:0.0 6:0.0 
-1.0 -1.0 1:0.0 2:0.0 3:0.0 4:0.0 5:0.0 6:2.0 
-1.0 -1.0 1:0.0 2:0.0 3:0.0 4:0.0 5:0.0 6:0.0 
-1.0 -1.0 1:0.0 2:1.0 3:0.0 4:0.0 5:0.0 6:0.0 
-1.0 -1.0 1:0.0 2:0.0 3:0.0 4:0.0 5:0.0 6:1.0 
-1.0 -1.0 1:0.0 2:0.0 3:1.0 4:0.0 5:0.0 6:0.0 
-1.0 -1.0 1:0.0 2:0.0 3:0.0 4:0.0 5:0.0 6:0.0 
-1.0 -1.0 1:1.0 2:0.0 3:0.0 4:0.0 5:0.0 6:1.0 
-1.0 -1.0 1:0.0 2:0.0 3:0.0 4:0.0 5:0.0 6:1.0 
-1.0 -1.0 1:0.0 2:0.0 3:0.0 4:0.0 5:0.0 6:2.0 
-1.0 -1.0 1:0.0 2:0.0 3:0.0 4:0.0 5:0.0 6:0.0 
-1.0 -1.0 1:0.0 2:0.0 3:0.0 4:0.0 5:0.0 6:0.0 
-1.0 -1.0 1:0.0 2:0.0 3:0.0 4:0.0 5:0.0 6:0.0 
-1.0 -1.0 1:1.0 2:0.0 3:0.0 4:0.0 5:0.0 6:0.0 
-1.0 -1.0 1:0.0 2:1.0 3:0.0 4:0.0 5:0.0 6:3.0 
-1.0 -1.0 1:0.0 2:0.0 3:1.0 4:0.0 5:1.0 6:0.0 
-1.0 -1.0 1:2.0 2:0.0 3:0.0 4:0.0 5:0.0 6:3.0 
-1.0 -1.0 1:0.0 2:0.0 3:0.0 4:0.0 5:0.0 6:0.0 
-1.0 -1.0 1:1.0 2:0.0 3:0.0 4:0.0 5:0.0 6:0.0 
-1.0 -1.0 1:0.0 2:0.0 3:0.0 4:0.0 5:0.0 6:0.0 
-1.0 -1.0 1:1.0 2:0.0 3:0.0 4:0.0 5:0.0 6:1.0 
-1.0 -1.0 1:1.0 2:0.0 3:0.0 4:0.0 5:0.0 6:0.0 
-1.0 -1.0 1:4.0 2:0.0 3:0.0 4:0.0 5:0.0 6:1.0 
-1.0 -1.0 1:0.0 2:0.0 3:0.0 4:0.0 5:0.0 6:1.0 
-1.0 -1.0 1:0.0 2:1.0 3:0.0 4:0.0 5:0.0 6:0.0 
-1.0 -1.0 1:1.0 2:0.0 3:0.0 4:0.0 5:0.0 6:0.0 
-1.0 -1.0 1:0.0 2:0.0 3:0.0 4:0.0 5:0.0 6:0.0 
-1.0 -1.0 1:3.0 2:0.0 3:0.0 4:0.0 5:0.0 6:0.0 
-1.0 -1.0 1:1.0 2:0.0 3:0.0 4:0.0 5:0.0 6:2.0 
-1.0 -1.0 1:0.0 2:0.0 3:1.0 4:0.0 5:0.0 6:0.0 
-1.0 -1.0 1:1.0 2:0.0 3:0.0 4:0.0 5:0.0 6:1.0 
-1.0 -1.0 1:1.0 2:1.0 3:0.0 4:0.0 5:0.0 6:3.0 
-1.0 -1.0 1:0.0 2:0.0 3:1.0 4:0.0 5:0.0 6:0.0 
-1.0 -1.0 1:0.0 2:0.0 3:0.0 4:0.0 5:0.0 6:1.0 
-1.0 -1.0 1:0.0 2:0.0 3:0.0 4:0.0 5:0.0 6:2.0 
-1.0 -1.0 1:1.0 2:3.0 3:0.0 4:0.0 5:0.0 6:0.0 
-1.0 -1.0 1:0.0 2:0.0 3:1.0 4:0.0 5:0.0 6:2.0 
-1.0 -1.0 1:0.0 2:1.0 3:0.0 4:0.0 5:1.0 6:0.0 
-1.0 -1.0 1:0.0 2:0.0 3:0.0 4:0.0 5:0.0 6:2.0 
-1.0 -1.0 1:1.0 2:0.0 3:0.0 4:0.0 5:0.0 6:0.0 
-1.0 -1.0 1:0.0 2:0.0 3:0.0 4:0.0 5:0.0 6:1.0 
-1.0 -1.0 1:0.0 2:0.0 3:0.0 4:0.0 5:0.0 6:0.0 
-1.0 -1.0 1:0.0 2:0.0 3:0.0 4:0.0 5:0.0 6:1.0 
-1.0 -1.0 1:1.0 2:0.0 3:0.0 4:0.0 5:0.0 6:1.0 
-1.0 -1.0 1:0.0 2:1.0 3:0.0 4:0.0 5:0.0 6:1.0 
-1.0 -1.0 1:0.0 2:1.0 3:0.0 4:0.0 5:1.0 6:0.0 
-1.0 -1.0 1:0.0 2:0.0 3:0.0 4:0.0 5:0.0 6:0.0 
-1.0 -1.0 1:1.0 2:0.0 3:0.0 4:0.0 5:0.0 6:3.0 
-1.0 -1.0 1:0.0 2:0.0 3:0.0 4:3.0 5:0.0 6:0.0 
-1.0 -1.0 1:0.0 2:0.0 3:0.0 4:0.0 5:0.0 6:0.0 
-1.0 -1.0 1:1.0 2:0.0 3:0.0 4:0.0 5:0.0 6:0.0 
-1.0 -1.0 1:1.0 2:1.0 3:0.0 4:0.0 5:0.0 6:1.0 
-1.0 -1.0 1:1.0 2:0.0 3:0.0 4:0.0 5:1.0 6:0.0 
-1.0 -1.0 1:0.0 2:0.0 3:0.0 4:0.0 5:0.0 6:2.0 
-1.0 -1.0 1:0.0 2:0.0 3:0.0 4:0.0 5:0.0 6:0.0 
-1.0 -1.0 1:1.0 2:0.0 3:0.0 4:0.0 5:0.0 6:0.0 
-1.0 -1.0 1:0.0 2:0.0 3:0.0 4:0.0 5:0.0 6:0.0 
-1.0 -1.0 1:0.0 2:0.0 3:0.0 4:0.0 5:0.0 6:0.0 
-1.0 -1.0 1:0.0 2:0.0 3:0.0 4:0.0 5:0.0 6:0.0 
-1.0 -1.0 1:0.0 2:0.0 3:0.0 4:0.0 5:0.0 6:2.0 
-1.0 -1.0 1:0.0 2:0.0 3:1.0 4:0.0 5:0.0 6:0.0 
-1.0 -1.0 1:0.0 2:1.0 3:0.0 4:0.0 5:1.0 6:0.0 
-1.0 -1.0 1:0.0 2:0.0 3:0.0 4:0.0 5:0.0 6:0.0 
-1.0 -1.0 1:0.0 2:0.0 3:0.0 4:0.0 5:0.0 6:0.0 
-1.0 -1.0 1:1.0 2:1.0 3:0.0 4:0.0 5:0.0 6:0.0 
-1.0 -1.0 1:0.0 2:0.0 3:1.0 4:0.0 5:0.0 6:0.0 
-1.0 -1.0 1:3.0 2:0.0 3:0.0 4:1.0 5:0.0 6:0.0 
-1.0 -1.0 1:1.0 2:0.0 3:0.0 4:0.0 5:0.0 6:0.0 
-1.0 -1.0 1:0.0 2:0.0 3:0.0 4:0.0 5:0.0 6:0.0 
-1.0 -1.0 1:0.0 2:0.0 3:0.0 4:0.0 5:0.0 6:0.0 
-1.0 -1.0 1:0.0 2:0.0 3:0.0 4:0.0 5:0.0 6:0.0 
-1.0 -1.0 1:1.0 2:3.0 3:0.0 4:0.0 5:0.0 6:0.0 
-1.0 -1.0 1:0.0 2:0.0 3:0.0 4:0.0 5:1.0 6:0.0 
-1.0 -1.0 1:0.0 2:0.0 3:1.0 4:0.0 5:0.0 6:0.0 
-1.0 -1.0 1:0.0 2:2.0 3:0.0 4:0.0 5:0.0 6:0.0 
-1.0 -1.0 1:0.0 2:0.0 3:0.0 4:0.0 5:0.0 6:1.0 
-1.0 -1.0 1:0.0 2:0.0 3:0.0 4:0.0 5:0.0 6:2.0 
-1.0 -1.0 1:0.0 2:0.0 3:0.0 4:0.0 5:0.0 6:2.0 
-1.0 -1.0 1:3.0 2:0.0 3:0.0 4:0.0 5:3.0 6:0.0 
-1.0 -1.0 1:0.0 2:0.0 3:0.0 4:0.0 5:0.0 6:0.0 
-1.0 -1.0 1:3.0 2:1.0 3:0.0 4:0.0 5:0.0 6:3.0 
-1.0 -1.0 1:0.0 2:0.0 3:0.0 4:0.0 5:0.0 6:0.0 
-1.0 -1.0 1:0.0 2:0.0 3:0.0 4:0.0 5:0.0 6:0.0 
-1.0 -1.0 1:0.0 2:0.0 3:0.0 4:0.0 5:0.0 6:0.0 
-1.0 -1.0 1:0.0 2:0.0 3:0.0 4:0.0 5:0.0 6:0.0 
-1.0 -1.0 1:0.0 2:0.0 3:0.0 4:0.0 5:0.0 6:0.0 
-1.0 -1.0 1:1.0 2:0.0 3:0.0 4:0.0 5:0.0 6:1.0 
-1.0 -1.0 1:1.0 2:0.0 3:0.0 4:0.0 5:0.0 6:1.0 
-1.0 -1.0 1:1.0 2:0.0 3:0.0 4:0.0 5:0.0 6:0.0 
-1.0 -1.0 1:1.0 2:0.0 3:0.0 4:0.0 5:0.0 6:1.0 
-1.0 -1.0 1:1.0 2:1.0 3:0.0 4:0.0 5:0.0 6:0.0 
-1.0 -1.0 1:0.0 2:0.0 3:0.0 4:0.0 5:0.0 6:1.0 
-1.0 -1.0 1:0.0 2:0.0 3:0.0 4:0.0 5:1.0 6:0.0 
-1.0 -1.0 1:0.0 2:0.0 3:0.0 4:0.0 5:0.0 6:3.0 
-1.0 -1.0 1:1.0 2:0.0 3:0.0 4:0.0 5:0.0 6:1.0 
-1.0 -1.0 1:1.0 2:0.0 3:0.0 4:0.0 5:0.0 6:2.0 
-1.0 -1.0 1:1.0 2:0.0 3:0.0 4:0.0 5:0.0 6:0.0 
-1.0 -1.0 1:0.0 2:1.0 3:0.0 4:0.0 5:1.0 6:0.0 
-1.0 -1.0 1:1.0 2:0.0 3:0.0 4:0.0 5:1.0 6:0.0 
-1.0 -1.0 1:1.0 2:0.0 3:0.0 4:0.0 5:0.0 6:0.0 
-1.0 -1.0 1:1.0 2:2.0 3:0.0 4:0.0 5:0.0 6:1.0 
-1.0 -1.0 1:1.0 2:0.0 3:0.0 4:0.0 5:0.0 6:0.0 
-1.0 -1.0 1:1.0 2:0.0 3:0.0 4:0.0 5:0.0 6:2.0 
-1.0 -1.0 1:0.0 2:1.0 3:0.0 4:0.0 5:0.0 6:1.0 
-1.0 -1.0 1:1.0 2:0.0 3:0.0 4:0.0 5:0.0 6:1.0 
-1.0 -1.0 1:1.0 2:0.0 3:0.0 4:0.0 5:0.0 6:0.0 
-1.0 -1.0 1:1.0 2:0.0 3:0.0 4:0.0 5:0.0 6:0.0 
-1.0 -1.0 1:0.0 2:0.0 3:0.0 4:0.0 5:0.0 6:0.0 
-1.0 -1.0 1:0.0 2:0.0 3:0.0 4:0.0 5:0.0 6:0.0 
-1.0 -1.0 1:1.0 2:0.0 3:0.0 4:0.0 5:0.0 6:0.0 
-1.0 -1.0 1:1.0 2:0.0 3:0.0 4:0.0 5:0.0 6:0.0 
-1.0 -1.0 1:0.0 2:0.0 3:1.0 4:0.0 5:0.0 6:2.0 
-1.0 -1.0 1:0.0 2:0.0 3:0.0 4:0.0 5:0.0 6:0.0 
-1.0 -1.0 1:1.0 2:0.0 3:0.0 4:0.0 5:0.0 6:3.0 
-1.0 -1.0 1:0.0 2:0.0 3:0.0 4:0.0 5:0.0 6:0.0 
-1.0 -1.0 1:1.0 2:0.0 3:0.0 4:0.0 5:0.0 6:3.0 
-1.0 -1.0 1:1.0 2:0.0 3:0.0 4:0.0 5:0.0 6:2.0 
-1.0 -1.0 1:1.0 2:0.0 3:0.0 4:0.0 5:0.0 6:0.0 
-1.0 -1.0 1:0.0 2:0.0 3:1.0 4:0.0 5:0.0 6:0.0 
-1.0 -1.0 1:1.0 2:1.0 3:0.0 4:0.0 5:0.0 6:1.0 
-1.0 -1.0 1:1.0 2:0.0 3:0.0 4:0.0 5:0.0 6:2.0 
-1.0 -1.0 1:0.0 2:1.0 3:0.0 4:0.0 5:0.0 6:0.0 
-1.0 -1.0 1:1.0 2:0.0 3:0.0 4:0.0 5:0.0 6:0.0 
-1.0 -1.0 1:1.0 2:0.0 3:0.0 4:0.0 5:0.0 6:2.0 
-1.0 -1.0 1:0.0 2:0.0 3:0.0 4:0.0 5:0.0 6:0.0 
-1.0 -1.0 1:0.0 2:1.0 3:0.0 4:0.0 5:0.0 6:1.0 
-1.0 -1.0 1:0.0 2:0.0 3:0.0 4:0.0 5:0.0 6:0.0 
-1.0 -1.0 1:1.0 2:0.0 3:0.0 4:0.0 5:0.0 6:1.0 
-1.0 -1.0 1:1.0 2:0.0 3:0.0 4:0.0 5:0.0 6:0.0 
-1.0 -1.0 1:1.0 2:0.0 3:0.0 4:0.0 5:0.0 6:0.0 
-1.0 -1.0 1:0.0 2:0.0 3:0.0 4:0.0 5:0.0 6:0.0 
-1.0 -1.0 1:1.0 2:0.0 3:0.0 4:0.0 5:0.0 6:0.0 
-1.0 -1.0 1:1.0 2:0.0 3:0.0 4:0.0 5:0.0 6:0.0 
-1.0 -1.0 1:0.0 2:0.0 3:1.0 4:0.0 5:0.0 6:3.0 
-1.0 -1.0 1:0.0 2:0.0 3:0.0 4:0.0 5:0.0 6:0.0 
-1.0 -1.0 1:0.0 2:0.0 3:0.0 4:0.0 5:0.0 6:4.0 
-1.0 -1.0 1:0.0 2:0.0 3:0.0 4:0.0 5:0.0 6:0.0 
-1.0 -1.0 1:0.0 2:1.0 3:0.0 4:0.0 5:0.0 6:1.0 
-1.0 -1.0 1:1.0 2:2.0 3:0.0 4:0.0 5:0.0 6:0.0 
-1.0 -1.0 1:1.0 2:1.0 3:0.0 4:0.0 5:1.0 6:0.0 
-1.0 -1.0 1:1.0 2:1.0 3:0.0 4:0.0 5:0.0 6:1.0 
-1.0 -1.0 1:0.0 2:0.0 3:0.0 4:0.0 5:0.0 6:1.0 
-1.0 -1.0 1:2.0 2:0.0 3:0.0 4:0.0 5:0.0 6:1.0 
-1.0 -1.0 1:2.0 2:1.0 3:0.0 4:0.0 5:0.0 6:2.0 
-1.0 -1.0 1:0.0 2:1.0 3:0.0 4:0.0 5:1.0 6:0.0 
-1.0 -1.0 1:0.0 2:0.0 3:0.0 4:0.0 5:0.0 6:0.0 
-1.0 -1.0 1:1.0 2:1.0 3:0.0 4:0.0 5:0.0 6:3.0 
-1.0 -1.0 1:0.0 2:0.0 3:0.0 4:0.0 5:0.0 6:2.0 
-1.0 -1.0 1:2.0 2:0.0 3:0.0 4:0.0 5:0.0 6:1.0 
-1.0 -1.0 1:0.0 2:0.0 3:0.0 4:0.0 5:0.0 6:2.0 
-1.0 -1.0 1:3.0 2:0.0 3:0.0 4:0.0 5:1.0 6:0.0 
-1.0 -1.0 1:1.0 2:0.0 3:0.0 4:0.0 5:0.0 6:3.0 
-1.0 -1.0 1:1.0 2:0.0 3:0.0 4:0.0 5:0.0 6:0.0 
-1.0 -1.0 1:0.0 2:1.0 3:0.0 4:0.0 5:0.0 6:0.0 
-1.0 -1.0 1:0.0 2:0.0 3:0.0 4:0.0 5:0.0 6:0.0 
-1.0 -1.0 1:0.0 2:0.0 3:0.0 4:0.0 5:0.0 6:1.0 
-1.0 -1.0 1:1.0 2:1.0 3:0.0 4:0.0 5:0.0 6:1.0 
-1.0 -1.0 1:1.0 2:0.0 3:0.0 4:0.0 5:0.0 6:0.0 
-1.0 -1.0 1:0.0 2:0.0 3:0.0 4:0.0 5:0.0 6:1.0 
-1.0 -1.0 1:0.0 2:0.0 3:0.0 4:0.0 5:0.0 6:0.0 
-1.0 -1.0 1:1.0 2:2.0 3:0.0 4:0.0 5:0.0 6:3.0 
-1.0 -1.0 1:0.0 2:0.0 3:0.0 4:0.0 5:1.0 6:0.0 
-1.0 -1.0 1:0.0 2:0.0 3:0.0 4:0.0 5:0.0 6:0.0 
-1.0 -1.0 1:0.0 2:0.0 3:0.0 4:0.0 5:0.0 6:1.0 
-1.0 -1.0 1:0.0 2:0.0 3:0.0 4:0.0 5:0.0 6:1.0 
-1.0 -1.0 1:0.0 2:0.0 3:1.0 4:0.0 5:0.0 6:1.0 
-1.0 -1.0 1:0.0 2:0.0 3:0.0 4:0.0 5:1.0 6:0.0 
-1.0 -1.0 1:2.0 2:1.0 3:0.0 4:0.0 5:0.0 6:4.0 
-1.0 -1.0 1:1.0 2:0.0 3:0.0 4:0.0 5:0.0 6:0.0 
-1.0 -1.0 1:0.0 2:0.0 3:0.0 4:0.0 5:0.0 6:0.0 
-1.0 -1.0 1:0.0 2:0.0 3:0.0 4:0.0 5:1.0 6:0.0 
-1.0 -1.0 1:0.0 2:1.0 3:0.0 4:0.0 5:0.0 6:0.0 
-1.0 -1.0 1:2.0 2:0.0 3:0.0 4:0.0 5:0.0 6:0.0 
-1.0 -1.0 1:2.0 2:1.0 3:0.0 4:0.0 5:0.0 6:2.0 
-1.0 -1.0 1:0.0 2:0.0 3:0.0 4:0.0 5:0.0 6:0.0 
-1.0 -1.0 1:0.0 2:0.0 3:0.0 4:0.0 5:1.0 6:0.0 
-1.0 -1.0 1:1.0 2:0.0 3:0.0 4:0.0 5:0.0 6:1.0 
-1.0 -1.0 1:0.0 2:1.0 3:0.0 4:0.0 5:0.0 6:3.0 
-1.0 -1.0 1:1.0 2:0.0 3:0.0 4:0.0 5:0.0 6:2.0 
-1.0 -1.0 1:0.0 2:1.0 3:0.0 4:0.0 5:0.0 6:0.0 
-1.0 -1.0 1:0.0 2:0.0 3:0.0 4:0.0 5:0.0 6:0.0 
-1.0 -1.0 1:1.0 2:0.0 3:0.0 4:0.0 5:0.0 6:0.0 
-1.0 -1.0 1:2.0 2:0.0 3:0.0 4:0.0 5:0.0 6:2.0 
-1.0 -1.0 1:0.0 2:0.0 3:1.0 4:0.0 5:0.0 6:2.0 
-1.0 -1.0 1:0.0 2:0.0 3:0.0 4:0.0 5:0.0 6:0.0 
-1.0 -1.0 1:0.0 2:1.0 3:0.0 4:0.0 5:0.0 6:1.0 
-1.0 -1.0 1:1.0 2:1.0 3:0.0 4:0.0 5:0.0 6:1.0 
-1.0 -1.0 1:0.0 2:0.0 3:0.0 4:0.0 5:0.0 6:0.0 
-1.0 -1.0 1:0.0 2:1.0 3:0.0 4:0.0 5:0.0 6:2.0 
-1.0 -1.0 1:0.0 2:0.0 3:0.0 4:0.0 5:0.0 6:0.0 
-1.0 -1.0 1:1.0 2:0.0 3:0.0 4:0.0 5:0.0 6:1.0 
-1.0 -1.0 1:0.0 2:1.0 3:0.0 4:0.0 5:0.0 6:0.0 
-1.0 -1.0 1:1.0 2:0.0 3:0.0 4:0.0 5:0.0 6:0.0 
-1.0 -1.0 1:2.0 2:0.0 3:0.0 4:0.0 5:0.0 6:2.0 
-1.0 -1.0 1:0.0 2:0.0 3:1.0 4:0.0 5:0.0 6:3.0 
-1.0 -1.0 1:0.0 2:0.0 3:0.0 4:0.0 5:0.0 6:0.0 
-1.0 -1.0 1:0.0 2:1.0 3:0.0 4:0.0 5:0.0 6:1.0 
-1.0 -1.0 1:0.0 2:0.0 3:2.0 4:0.0 5:0.0 6:6.0 
-1.0 -1.0 1:0.0 2:0.0 3:0.0 4:1.0 5:0.0 6:0.0 
-1.0 -1.0 1:2.0 2:0.0 3:0.0 4:0.0 5:0.0 6:3.0 
-1.0 -1.0 1:1.0 2:0.0 3:0.0 4:0.0 5:0.0 6:1.0 
-1.0 -1.0 1:1.0 2:1.0 3:0.0 4:0.0 5:0.0 6:3.0 
-1.0 -1.0 1:2.0 2:0.0 3:0.0 4:0.0 5:0.0 6:4.0 
-1.0 -1.0 1:0.0 2:0.0 3:0.0 4:0.0 5:0.0 6:0.0 
-1.0 -1.0 1:3.0 2:0.0 3:0.0 4:0.0 5:0.0 6:1.0 
-1.0 -1.0 1:1.0 2:1.0 3:0.0 4:0.0 5:0.0 6:0.0 
-1.0 -1.0 1:1.0 2:0.0 3:0.0 4:0.0 5:0.0 6:1.0 
-1.0 -1.0 1:1.0 2:0.0 3:0.0 4:0.0 5:0.0 6:0.0 
-1.0 -1.0 1:0.0 2:0.0 3:0.0 4:0.0 5:0.0 6:0.0 
-1.0 -1.0 1:1.0 2:0.0 3:0.0 4:0.0 5:0.0 6:0.0 
-1.0 -1.0 1:1.0 2:0.0 3:0.0 4:0.0 5:0.0 6:1.0 
-1.0 -1.0 1:4.0 2:0.0 3:0.0 4:0.0 5:1.0 6:0.0 
-1.0 -1.0 1:0.0 2:0.0 3:0.0 4:0.0 5:0.0 6:0.0 
-1.0 -1.0 1:0.0 2:0.0 3:0.0 4:0.0 5:0.0 6:1.0 
-1.0 -1.0 1:4.0 2:0.0 3:0.0 4:0.0 5:1.0 6:0.0 
-1.0 -1.0 1:1.0 2:0.0 3:0.0 4:0.0 5:0.0 6:0.0 
-1.0 -1.0 1:0.0 2:0.0 3:0.0 4:0.0 5:0.0 6:0.0 
-1.0 -1.0 1:1.0 2:0.0 3:0.0 4:0.0 5:0.0 6:3.0 
-1.0 -1.0 1:1.0 2:0.0 3:0.0 4:0.0 5:0.0 6:0.0 
-1.0 -1.0 1:1.0 2:1.0 3:0.0 4:0.0 5:0.0 6:0.0 
-1.0 -1.0 1:0.0 2:1.0 3:0.0 4:0.0 5:0.0 6:0.0 
-1.0 -1.0 1:0.0 2:0.0 3:0.0 4:0.0 5:0.0 6:1.0 
-1.0 -1.0 1:0.0 2:0.0 3:5.0 4:0.0 5:1.0 6:0.0 
-1.0 -1.0 1:1.0 2:0.0 3:0.0 4:0.0 5:0.0 6:4.0 
-1.0 -1.0 1:0.0 2:0.0 3:0.0 4:0.0 5:1.0 6:0.0 
-1.0 -1.0 1:0.0 2:0.0 3:0.0 4:0.0 5:0.0 6:1.0 
-1.0 -1.0 1:1.0 2:0.0 3:0.0 4:0.0 5:0.0 6:1.0 
-1.0 -1.0 1:0.0 2:0.0 3:0.0 4:0.0 5:0.0 6:4.0 
-1.0 -1.0 1:0.0 2:0.0 3:0.0 4:0.0 5:0.0 6:0.0 
-1.0 -1.0 1:2.0 2:0.0 3:0.0 4:0.0 5:0.0 6:0.0 
-1.0 -1.0 1:2.0 2:0.0 3:0.0 4:0.0 5:0.0 6:1.0 
-1.0 -1.0 1:0.0 2:0.0 3:0.0 4:0.0 5:0.0 6:1.0 
-1.0 -1.0 1:1.0 2:0.0 3:0.0 4:0.0 5:0.0 6:1.0 
-1.0 -1.0 1:0.0 2:0.0 3:0.0 4:0.0 5:0.0 6:0.0 
-1.0 -1.0 1:2.0 2:0.0 3:0.0 4:0.0 5:0.0 6:2.0 
-1.0 -1.0 1:0.0 2:1.0 3:0.0 4:0.0 5:0.0 6:3.0 
-1.0 -1.0 1:0.0 2:0.0 3:0.0 4:0.0 5:0.0 6:0.0 
-1.0 -1.0 1:0.0 2:1.0 3:0.0 4:0.0 5:0.0 6:0.0 
-1.0 -1.0 1:0.0 2:0.0 3:0.0 4:0.0 5:0.0 6:2.0 
-1.0 -1.0 1:2.0 2:0.0 3:0.0 4:1.0 5:0.0 6:0.0 
-1.0 -1.0 1:0.0 2:0.0 3:1.0 4:0.0 5:0.0 6:0.0 
-1.0 -1.0 1:1.0 2:0.0 3:0.0 4:0.0 5:0.0 6:0.0 
-1.0 -1.0 1:4.0 2:3.0 3:0.0 4:0.0 5:0.0 6:1.0 
-1.0 -1.0 1:0.0 2:0.0 3:0.0 4:0.0 5:0.0 6:1.0 
-1.0 -1.0 1:0.0 2:0.0 3:0.0 4:0.0 5:0.0 6:0.0 
-1.0 -1.0 1:1.0 2:0.0 3:0.0 4:0.0 5:0.0 6:0.0 
-1.0 -1.0 1:1.0 2:0.0 3:0.0 4:0.0 5:0.0 6:0.0 
-1.0 -1.0 1:0.0 2:1.0 3:0.0 4:0.0 5:0.0 6:0.0 
-1.0 -1.0 1:0.0 2:0.0 3:0.0 4:0.0 5:0.0 6:0.0 
-1.0 -1.0 1:0.0 2:0.0 3:1.0 4:0.0 5:0.0 6:0.0 
-1.0 -1.0 1:1.0 2:0.0 3:0.0 4:0.0 5:0.0 6:0.0 
-1.0 -1.0 1:1.0 2:1.0 3:0.0 4:0.0 5:0.0 6:2.0 
-1.0 -1.0 1:0.0 2:0.0 3:0.0 4:0.0 5:0.0 6:0.0 
-1.0 -1.0 1:2.0 2:0.0 3:0.0 4:0.0 5:0.0 6:0.0 
-1.0 -1.0 1:1.0 2:0.0 3:0.0 4:0.0 5:0.0 6:1.0 
-1.0 -1.0 1:0.0 2:1.0 3:0.0 4:0.0 5:2.0 6:0.0 
-1.0 -1.0 1:2.0 2:0.0 3:0.0 4:0.0 5:0.0 6:0.0 
-1.0 -1.0 1:1.0 2:0.0 3:0.0 4:0.0 5:0.0 6:3.0 
-1.0 -1.0 1:1.0 2:0.0 3:0.0 4:0.0 5:0.0 6:1.0 
-1.0 -1.0 1:1.0 2:0.0 3:0.0 4:0.0 5:0.0 6:2.0 
-1.0 -1.0 1:0.0 2:1.0 3:0.0 4:0.0 5:0.0 6:2.0 
-1.0 -1.0 1:1.0 2:0.0 3:0.0 4:0.0 5:0.0 6:1.0 
-1.0 -1.0 1:0.0 2:1.0 3:0.0 4:0.0 5:0.0 6:1.0 
-1.0 -1.0 1:2.0 2:0.0 3:0.0 4:0.0 5:0.0 6:1.0 
-1.0 -1.0 1:1.0 2:0.0 3:0.0 4:0.0 5:0.0 6:0.0 
-1.0 -1.0 1:3.0 2:0.0 3:0.0 4:0.0 5:0.0 6:2.0 
-1.0 -1.0 1:0.0 2:0.0 3:0.0 4:0.0 5:1.0 6:0.0 
-1.0 -1.0 1:0.0 2:0.0 3:0.0 4:0.0 5:0.0 6:4.0 
