svm_type c_svc
kernel_type linear
nr_class 3
total_sv 1084
rho 2.3726172938210577 1.0000000037252903 0.9999632159493055
label 0 1 2
nr_sv 307 343 434
SV
0.0 1.0 1:-0.6 2:-1.0 3:-1.0 
0.0 1.0 1:0.19999999999999996 2:-1.0 3:-1.0 
1.0 1.0 1:0.19999999999999996 2:-1.0 3:-0.6 
1.0 1.0 1:-0.6 2:-0.5 3:-1.0 
0.0 1.0 1:-0.19999999999999996 2:-1.0 3:-1.0 
1.0 1.0 1:-1.0 3:-0.19999999999999996 
1.0 1.0 1:0.19999999999999996 2:-0.5 3:-0.6 
1.0 1.0 1:-0.6 2:-0.5 3:-1.0 
0.0 1.0 1:-0.6 2:-1.0 3:-1.0 
0.0 1.0 1:-0.19999999999999996 2:-1.0 3:-1.0 
1.0 1.0 1:-0.6 2:-0.5 3:-0.6 
1.0 1.0 1:-0.19999999999999996 2:-1.0 3:-0.19999999999999996 
0.0 1.0 1:0.19999999999999996 2:-1.0 3:-1.0 
1.0 1.0 1:-0.19999999999999996 2:-1.0 3:-0.19999999999999996 
0.0 1.0 1:-0.19999999999999996 2:-1.0 3:-1.0 
1.0 1.0 1:-0.19999999999999996 3:-1.0 
1.0 1.0 1:0.19999999999999996 2:-0.5 3:-1.0 
1.0 1.0 1:-0.19999999999999996 2:-0.5 3:-0.6 
1.0 1.0 1:-1.0 2:-0.5 3:-1.0 
1.0 1.0 1:-1.0 2:-1.0 3:-1.0 
1.0 1.0 1:-1.0 2:-1.0 3:-1.0 
0.0 1.0 1:-0.6 2:-1.0 3:-1.0 
0.0 1.0 1:-0.6 2:-1.0 3:-1.0 
0.0 1.0 1:-0.6 2:-1.0 3:-1.0 
0.0 1.0 1:-0.6 2:-1.0 3:-1.0 
0.0 1.0 1:-0.6 2:-1.0 3:-1.0 
1.0 1.0 1:-0.19999999999999996 2:-0.5 3:-1.0 
1.0 1.0 1:-0.6 2:-0.5 3:-1.0 
1.0 1.0 1:-1.0 2:-1.0 3:-0.6 
1.0 1.0 1:-0.19999999999999996 2:-1.0 3:-0.19999999999999996 
1.0 1.0 1:-0.19999999999999996 2:-1.0 3:-0.19999999999999996 
0.0 1.0 1:-0.6 2:-1.0 3:-1.0 
1.0 1.0 1:-1.0 2:-1.0 3:-1.0 
1.0 1.0 1:-0.6 2:-1.0 3:-0.6 
0.0 1.0 1:-0.6 2:-1.0 3:-1.0 
0.06474990392892656 1.0 1:-0.6 2:-1.0 3:-1.0 
1.0 1.0 1:-1.0 2:-1.0 3:-1.0 
1.0 1.0 1:-0.6 2:-1.0 3:-1.0 
1.0 1.0 1:-1.0 2:-0.5 3:-0.6 
0.0 1.0 1:-0.19999999999999996 2:-1.0 3:-1.0 
1.0 1.0 1:-0.19999999999999996 2:-0.5 3:-1.0 
1.0 1.0 1:0.19999999999999996 3:-1.0 
1.0 1.0 1:-0.6 2:-0.5 3:-1.0 
1.0 1.0 1:-1.0 2:-1.0 3:-1.0 
1.0 1.0 1:-0.19999999999999996 2:-0.5 3:-1.0 
1.0 1.0 1:-0.6 2:-1.0 3:-1.0 
1.0 1.0 1:-1.0 2:-0.5 3:-1.0 
1.0 1.0 1:-1.0 2:-1.0 3:-0.6 
1.0 1.0 1:-1.0 2:-1.0 3:-1.0 
1.0 1.0 1:-0.6 2:-1.0 3:-1.0 
1.0 1.0 1:-1.0 2:-1.0 3:-0.19999999999999996 
0.0 1.0 1:-0.19999999999999996 2:-1.0 3:-1.0 
1.0 1.0 1:0.19999999999999996 2:-0.5 3:-1.0 
1.0 1.0 1:-0.6 2:-1.0 3:-1.0 
1.0 1.0 1:-0.6 2:-1.0 3:-1.0 
0.0 1.0 1:-0.19999999999999996 2:-1.0 3:-1.0 
1.0 1.0 1:-0.6 2:-1.0 3:-1.0 
1.0 1.0 1:-0.6 2:-1.0 3:-1.0 
1.0 1.0 1:-1.0 2:-1.0 3:-1.0 
0.0 1.0 1:1.0 2:-1.0 3:-0.6 
1.0 1.0 1:-1.0 3:-1.0 
1.0 1.0 1:-0.6 2:-1.0 3:-1.0 
1.0 1.0 1:-1.0 2:-1.0 3:-0.19999999999999996 
1.0 1.0 1:-1.0 2:-1.0 3:-1.0 
1.0 1.0 1:-0.6 2:-1.0 3:-1.0 
1.0 1.0 1:-0.6 2:-1.0 3:-1.0 
0.28431387151782533 1.0 1:0.19999999999999996 2:-1.0 3:-0.6 
1.0 1.0 1:-0.6 2:-0.5 3:-1.0 
1.0 1.0 1:-0.6 2:-1.0 3:-1.0 
1.0 1.0 1:0.19999999999999996 3:-1.0 
1.0 1.0 1:-1.0 2:-0.5 3:-1.0 
1.0 1.0 1:-0.6 2:-1.0 3:-1.0 
1.0 1.0 1:-0.6 2:-1.0 3:-1.0 
1.0 1.0 1:-0.6 2:-1.0 3:-1.0 
0.0 1.0 1:0.19999999999999996 2:-1.0 3:-0.6 
1.0 1.0 1:-0.6 3:-1.0 
1.0 1.0 1:-0.6 2:-1.0 3:-0.6 
1.0 1.0 1:-0.6 2:-1.0 3:-1.0 
1.0 1.0 1:-0.6 2:-1.0 3:-1.0 
1.0 1.0 1:0.19999999999999996 2:0.5 3:-1.0 
1.0 1.0 1:0.19999999999999996 2:0.5 3:-1.0 
1.0 1.0 1:0.19999999999999996 2:0.5 3:-1.0 
0.0 1.0 1:-0.19999999999999996 2:-1.0 3:-1.0 
1.0 1.0 1:-0.6 2:-1.0 3:-0.6 
1.0 1.0 1:-0.19999999999999996 2:-1.0 3:-0.19999999999999996 
0.0 1.0 1:-0.19999999999999996 2:-1.0 3:-1.0 
1.0 1.0 1:-0.6 2:-1.0 3:-1.0 
1.0 1.0 1:-1.0 2:-1.0 3:-1.0 
1.0 1.0 1:0.19999999999999996 2:-1.0 3:-0.19999999999999996 
1.0 1.0 1:-1.0 2:-1.0 3:-1.0 
1.0 1.0 1:0.19999999999999996 2:-0.5 3:-0.6 
1.0 1.0 1:-1.0 2:-1.0 3:-1.0 
1.0 1.0 1:-1.0 2:-1.0 3:-1.0 
1.0 1.0 1:-0.19999999999999996 2:-1.0 3:-0.19999999999999996 
1.0 1.0 1:-0.6 2:-1.0 3:-1.0 
1.0 1.0 1:-1.0 2:-1.0 3:-1.0 
1.0 1.0 1:-0.6 3:-0.6 
1.0 1.0 1:-0.19999999999999996 2:-0.5 3:-0.6 
1.0 1.0 1:-0.19999999999999996 2:-0.5 3:-0.6 
1.0 1.0 1:-1.0 2:-1.0 3:-1.0 
1.0 1.0 1:0.6000000000000001 2:-1.0 3:-0.19999999999999996 
1.0 1.0 1:-1.0 2:-1.0 3:-1.0 
1.0 1.0 1:-1.0 2:-1.0 3:-1.0 
1.0 1.0 1:-0.6 2:-0.5 3:-1.0 
0.0 1.0 1:1.0 2:-1.0 3:-1.0 
0.0 1.0 1:0.19999999999999996 2:-1.0 3:-1.0 
0.0 1.0 1:0.6000000000000001 2:-1.0 3:-1.0 
1.0 1.0 1:-1.0 2:-1.0 3:-0.6 
1.0 1.0 1:-1.0 2:-1.0 3:-1.0 
1.0 1.0 1:-0.6 2:-1.0 3:-1.0 
1.0 1.0 1:-1.0 2:-1.0 3:-1.0 
1.0 1.0 1:-0.6 2:-1.0 3:-1.0 
1.0 1.0 1:-0.19999999999999996 2:-0.5 3:-1.0 
1.0 1.0 1:-0.19999999999999996 2:-1.0 3:-0.19999999999999996 
1.0 1.0 1:-0.6 2:-1.0 3:-0.6 
1.0 1.0 1:-1.0 2:-1.0 3:0.19999999999999996 
1.0 1.0 1:-0.6 2:-1.0 3:-1.0 
1.0 1.0 1:-1.0 2:-0.5 3:-1.0 
1.0 1.0 1:-1.0 2:-0.5 3:-1.0 
0.0 1.0 1:0.19999999999999996 2:-1.0 3:-0.6 
1.0 1.0 1:-1.0 2:-0.5 3:-0.6 
1.0 1.0 1:-0.6 3:-0.6 
1.0 1.0 1:-1.0 2:-0.5 3:-0.6 
1.0 1.0 1:-1.0 2:-1.0 3:-0.6 
1.0 1.0 1:-0.6 2:-0.5 3:-0.6 
1.0 1.0 1:-0.6 2:-1.0 3:-1.0 
1.0 1.0 1:-0.6 2:-1.0 3:-1.0 
0.0 1.0 1:0.19999999999999996 2:-1.0 3:-0.6 
1.0 1.0 1:-1.0 2:-1.0 3:-1.0 
1.0 1.0 1:-0.19999999999999996 2:-1.0 3:-0.19999999999999996 
1.0 1.0 1:-0.6 2:-0.5 3:-1.0 
1.0 1.0 1:-1.0 2:-1.0 3:-1.0 
1.0 1.0 1:-0.19999999999999996 2:-0.5 3:-1.0 
1.0 1.0 1:-1.0 2:-1.0 3:-1.0 
1.0 1.0 1:-0.6 2:-1.0 3:-1.0 
1.0 1.0 1:-1.0 2:-1.0 3:-1.0 
1.0 1.0 1:-0.6 2:-0.5 3:-0.6 
1.0 1.0 1:-1.0 2:-1.0 3:-1.0 
1.0 1.0 1:-1.0 2:-1.0 3:-1.0 
1.0 1.0 1:-0.19999999999999996 2:-1.0 3:-0.6 
1.0 1.0 1:-1.0 2:-1.0 3:-1.0 
1.0 1.0 1:-0.6 2:-1.0 3:-1.0 
1.0 1.0 1:-1.0 2:-1.0 3:-0.19999999999999996 
1.0 1.0 1:-0.6 2:-1.0 3:-1.0 
1.0 1.0 1:-0.6 2:-1.0 3:-1.0 
1.0 1.0 1:-1.0 2:-1.0 3:-0.6 
1.0 1.0 1:-0.6 2:0.5 3:-0.6 
1.0 1.0 1:-1.0 2:-1.0 3:-0.6 
0.0 1.0 1:-0.19999999999999996 2:-1.0 3:-1.0 
1.0 1.0 1:-1.0 2:-1.0 3:-1.0 
1.0 1.0 1:-0.6 2:-1.0 3:-0.6 
1.0 1.0 1:-0.19999999999999996 2:-1.0 3:-0.6 
1.0 1.0 1:-0.6 2:-1.0 3:-1.0 
1.0 1.0 1:-0.6 2:-1.0 3:0.19999999999999996 
1.0 1.0 1:-0.6 2:-1.0 3:-1.0 
1.0 1.0 1:-0.6 2:-1.0 3:-1.0 
1.0 1.0 1:-1.0 2:-1.0 3:-1.0 
1.0 1.0 1:-0.6 2:-1.0 3:-0.6 
0.0 1.0 1:-0.19999999999999996 2:-1.0 3:-1.0 
1.0 1.0 1:-0.6 2:-1.0 3:-1.0 
1.0 1.0 1:-0.6 2:-1.0 3:-1.0 
1.0 1.0 1:-0.19999999999999996 2:-1.0 3:-0.19999999999999996 
1.0 1.0 1:-1.0 2:-1.0 3:-1.0 
0.0 1.0 1:0.19999999999999996 2:-1.0 3:-1.0 
1.0 1.0 1:-0.6 2:-1.0 3:-1.0 
1.0 1.0 1:-0.19999999999999996 2:-1.0 3:0.19999999999999996 
1.0 1.0 1:-1.0 2:-1.0 3:-0.6 
1.0 1.0 1:-0.6 2:-1.0 3:-1.0 
1.0 1.0 1:-0.6 2:-1.0 3:-1.0 
0.0 1.0 1:0.19999999999999996 2:-1.0 3:-1.0 
1.0 1.0 1:-1.0 2:-1.0 3:-1.0 
1.0 1.0 1:-0.6 2:-1.0 3:-1.0 
1.0 1.0 1:-1.0 2:-1.0 3:-1.0 
1.0 1.0 1:-0.6 2:-1.0 3:-0.6 
0.0 1.0 1:-0.19999999999999996 2:-1.0 3:-1.0 
1.0 1.0 1:-1.0 2:-1.0 3:-1.0 
1.0 1.0 1:-0.6 2:-1.0 3:-0.6 
1.0 1.0 1:-0.19999999999999996 2:-1.0 3:-0.6 
1.0 1.0 1:-0.6 2:-1.0 3:-1.0 
1.0 1.0 1:-0.6 2:-0.5 3:-1.0 
1.0 1.0 1:-1.0 2:-1.0 3:-0.6 
1.0 1.0 1:-0.6 2:-1.0 3:-0.6 
1.0 1.0 1:-1.0 2:-1.0 3:-1.0 
1.0 1.0 1:-0.19999999999999996 2:-1.0 3:-0.6 
0.0 1.0 1:-0.19999999999999996 2:-1.0 3:-1.0 
1.0 1.0 1:-0.6 2:-0.5 3:-0.6 
1.0 1.0 1:-0.6 2:-1.0 3:-1.0 
1.0 1.0 1:-0.6 2:-0.5 3:-0.6 
1.0 1.0 1:-0.6 2:-1.0 3:-1.0 
1.0 1.0 1:-0.6 2:-1.0 3:-1.0 
1.0 1.0 1:-1.0 2:-1.0 3:-0.6 
1.0 1.0 1:-0.6 2:-1.0 3:-1.0 
1.0 1.0 1:-0.6 2:-1.0 3:-0.6 
1.0 1.0 1:-0.6 2:-1.0 3:-1.0 
1.0 1.0 1:-0.6 2:-1.0 3:-1.0 
0.0 1.0 1:0.19999999999999996 2:-1.0 3:-1.0 
1.0 1.0 1:-0.6 2:-1.0 3:-0.19999999999999996 
1.0 1.0 1:-0.6 2:-1.0 3:-1.0 
1.0 1.0 1:-1.0 2:-1.0 3:-1.0 
1.0 1.0 1:-0.6 2:-1.0 3:-1.0 
1.0 1.0 1:-0.6 2:-1.0 3:-1.0 
1.0 1.0 1:-0.6 2:-1.0 3:-1.0 
0.0 1.0 1:-0.19999999999999996 2:-1.0 3:-1.0 
1.0 1.0 1:0.19999999999999996 2:-0.5 3:-0.6 
1.0 1.0 1:-1.0 2:-1.0 3:-0.6 
1.0 1.0 1:-0.6 2:-1.0 3:-1.0 
0.0 1.0 1:-0.19999999999999996 2:-1.0 3:-1.0 
1.0 1.0 1:-0.19999999999999996 2:-1.0 3:0.19999999999999996 
1.0 1.0 1:-0.6 2:-0.5 3:-1.0 
0.0 1.0 1:-0.19999999999999996 2:-1.0 3:-1.0 
1.0 1.0 1:-0.6 2:-1.0 3:-1.0 
1.0 1.0 1:-1.0 2:-1.0 3:-0.19999999999999996 
1.0 1.0 1:-0.6 2:-1.0 3:-1.0 
1.0 1.0 1:-0.6 2:-0.5 3:-0.6 
1.0 1.0 1:-0.6 2:-1.0 3:-1.0 
1.0 1.0 1:-0.6 2:-1.0 3:-1.0 
1.0 1.0 1:-0.6 2:-1.0 3:-1.0 
1.0 1.0 1:-0.6 2:-1.0 3:-1.0 
1.0 1.0 1:-0.6 2:-0.5 3:-1.0 
1.0 1.0 1:-0.6 2:-1.0 3:-1.0 
1.0 1.0 1:-0.6 2:-1.0 3:-0.6 
1.0 1.0 1:-1.0 2:-1.0 3:-1.0 
1.0 1.0 1:-0.6 2:-1.0 3:-1.0 
1.0 1.0 1:-1.0 2:-1.0 3:-1.0 
0.0 1.0 1:0.19999999999999996 2:-1.0 3:-1.0 
0.0 1.0 1:-0.19999999999999996 2:-1.0 3:-1.0 
1.0 1.0 1:-1.0 2:-1.0 3:-1.0 
1.0 1.0 1:-1.0 2:-1.0 3:-0.19999999999999996 
1.0 1.0 1:-0.6 2:-1.0 3:-1.0 
0.0 1.0 1:-0.19999999999999996 2:-1.0 3:-1.0 
1.0 1.0 1:-0.6 2:-1.0 3:-1.0 
0.0 1.0 1:-0.19999999999999996 2:-1.0 3:-1.0 
1.0 1.0 1:-1.0 2:-1.0 3:-1.0 
1.0 1.0 1:-0.6 2:-1.0 3:-0.19999999999999996 
1.0 1.0 1:-0.19999999999999996 2:-1.0 3:-0.6 
1.0 1.0 1:-0.19999999999999996 2:-1.0 3:-0.6 
1.0 1.0 1:-0.6 2:-1.0 3:-1.0 
1.0 1.0 1:-0.6 2:-1.0 3:-1.0 
1.0 1.0 1:-0.6 2:-1.0 3:-1.0 
1.0 1.0 1:-0.6 2:-1.0 3:-1.0 
1.0 1.0 1:-0.6 2:-1.0 3:-1.0 
1.0 1.0 1:-1.0 2:-0.5 3:-1.0 
1.0 1.0 1:-0.6 2:-1.0 3:-0.6 
0.0 1.0 1:0.6000000000000001 2:-1.0 3:-0.6 
0.0 1.0 1:-0.19999999999999996 2:-1.0 3:-1.0 
1.0 1.0 1:-0.6 2:-1.0 3:-1.0 
1.0 1.0 1:-1.0 2:-1.0 3:-1.0 
1.0 1.0 1:-1.0 2:-1.0 3:-1.0 
1.0 1.0 1:-0.6 2:-0.5 3:-0.19999999999999996 
0.0 1.0 1:-0.19999999999999996 2:-1.0 3:-1.0 
1.0 1.0 1:-1.0 2:-1.0 3:-1.0 
1.0 1.0 1:-1.0 2:-1.0 3:-1.0 
1.0 1.0 1:0.19999999999999996 2:-1.0 3:-0.19999999999999996 
1.0 1.0 1:-1.0 2:-1.0 3:-1.0 
1.0 1.0 1:-0.6 2:-1.0 3:-0.6 
1.0 1.0 1:-1.0 2:-1.0 3:-1.0 
1.0 1.0 1:-0.6 2:-1.0 3:-1.0 
1.0 1.0 1:-1.0 2:-1.0 3:-1.0 
1.0 1.0 1:-0.6 2:-1.0 3:-1.0 
1.0 1.0 1:-0.6 2:-1.0 3:-1.0 
1.0 1.0 1:-0.6 2:-1.0 3:-1.0 
1.0 1.0 1:-0.6 2:-1.0 3:-1.0 
1.0 1.0 1:-1.0 2:-0.5 3:-1.0 
1.0 1.0 1:-0.6 2:-1.0 3:-1.0 
1.0 1.0 1:-0.19999999999999996 2:-1.0 3:-0.6 
1.0 1.0 1:-0.6 2:-1.0 3:-1.0 
1.0 1.0 1:-0.19999999999999996 2:-0.5 3:-0.6 
1.0 1.0 1:-0.6 2:-0.5 3:-0.6 
1.0 1.0 1:-1.0 2:-1.0 3:-1.0 
0.0 1.0 1:0.19999999999999996 2:-1.0 3:-1.0 
1.0 1.0 1:-1.0 2:-1.0 3:-1.0 
0.0 1.0 1:0.6000000000000001 2:-1.0 3:-0.6 
1.0 1.0 1:-0.6 2:-1.0 3:-1.0 
1.0 1.0 1:-0.6 2:-1.0 3:0.19999999999999996 
1.0 1.0 1:0.19999999999999996 2:-0.5 3:-0.6 
1.0 1.0 1:-0.19999999999999996 2:-1.0 3:-0.6 
1.0 1.0 1:-0.6 2:-1.0 3:-1.0 
1.0 1.0 1:-0.6 2:-0.5 3:-1.0 
1.0 1.0 1:-0.6 2:-0.5 3:-0.6 
1.0 1.0 1:-1.0 2:-0.5 3:-1.0 
1.0 1.0 1:-0.19999999999999996 2:-0.5 3:-0.6 
1.0 1.0 1:-0.6 2:-1.0 3:-1.0 
1.0 1.0 1:-0.6 2:-1.0 3:-1.0 
1.0 1.0 1:-1.0 2:-0.5 3:-0.6 
1.0 1.0 1:-1.0 2:-0.5 3:-1.0 
1.0 1.0 1:-0.6 2:-1.0 3:-1.0 
1.0 1.0 1:-1.0 2:-1.0 3:-1.0 
1.0 1.0 1:-0.6 2:-1.0 3:-0.6 
1.0 1.0 1:-0.6 2:-0.5 3:-0.6 
0.0 1.0 1:-0.19999999999999996 2:-1.0 3:-1.0 
1.0 1.0 1:-1.0 2:-1.0 3:-1.0 
1.0 1.0 1:-1.0 2:-1.0 3:-0.6 
1.0 1.0 1:-1.0 2:-1.0 3:-1.0 
1.0 1.0 1:-0.6 2:-0.5 3:-1.0 
1.0 1.0 1:-1.0 2:-1.0 3:-1.0 
1.0 1.0 1:-0.6 2:-1.0 3:-1.0 
1.0 1.0 1:-0.19999999999999996 2:-1.0 3:0.19999999999999996 
1.0 1.0 1:-1.0 2:-1.0 3:-0.6 
1.0 1.0 1:-1.0 2:-0.5 3:-1.0 
1.0 1.0 1:-0.19999999999999996 2:-1.0 3:0.19999999999999996 
1.0 1.0 1:-0.19999999999999996 2:-1.0 3:-0.6 
1.0 1.0 1:-0.6 2:-0.5 3:-1.0 
1.0 1.0 1:-0.19999999999999996 2:-0.5 3:-0.6 
1.0 1.0 1:-1.0 2:-1.0 3:-1.0 
1.0 1.0 1:-0.6 2:-1.0 3:-1.0 
1.0 1.0 1:-1.0 2:-0.5 3:-1.0 
0.0 1.0 1:-0.19999999999999996 2:-1.0 3:-1.0 
-1.0 1.0 1:-1.0 2:-1.0 3:0.19999999999999996 
-1.0 1.0 1:-0.6 2:-0.5 3:-0.6 
-1.0 1.0 1:-0.6 2:-0.5 3:-0.6 
-1.0 1.0 1:-0.6 2:-0.5 3:-1.0 
-0.0 1.0 1:-1.0 3:-1.0 
-1.0 1.0 1:-1.0 2:-1.0 3:-0.6 
-1.0 1.0 1:-1.0 2:-0.5 3:-1.0 
-1.0 1.0 1:-0.19999999999999996 2:-1.0 3:-0.6 
-1.0 1.0 1:-1.0 2:-1.0 3:-0.6 
-1.0 1.0 1:-0.6 2:-1.0 3:-1.0 
-0.0 1.0 1:-1.0 2:-0.5 3:-0.6 
-0.0 1.0 1:-1.0 2:-0.5 3:-0.6 
-0.0 1.0 1:-0.6 2:-0.5 3:-0.19999999999999996 
-1.0 1.0 1:-0.19999999999999996 2:-0.5 3:-1.0 
-0.0 1.0 1:-1.0 2:-0.5 3:-0.6 
-1.0 1.0 1:-1.0 2:-0.5 3:-1.0 
-1.0 1.0 1:-1.0 2:-1.0 3:-1.0 
-0.0 1.0 1:0.19999999999999996 3:-0.6 
-1.0 1.0 1:-1.0 2:-1.0 3:-1.0 
-1.0 1.0 1:-0.6 2:-1.0 3:-0.6 
-0.0 1.0 1:-1.0 2:-0.5 3:-0.6 
-0.0 1.0 1:-0.6 2:-0.5 3:-0.19999999999999996 
-1.0 1.0 1:-0.19999999999999996 2:-1.0 3:-0.6 
-0.0 1.0 1:-1.0 3:-1.0 
-1.0 1.0 1:-0.6 2:-1.0 3:-1.0 
-1.0 1.0 1:-0.6 2:-1.0 3:-0.6 
-0.0 1.0 1:-1.0 3:-0.19999999999999996 
-1.0 1.0 1:-0.6 2:-1.0 3:-0.19999999999999996 
-0.0 1.0 1:-0.19999999999999996 3:-1.0 
-1.0 1.0 1:-0.19999999999999996 2:-1.0 3:-1.0 
-1.0 1.0 1:-1.0 2:-1.0 3:0.19999999999999996 
-1.0 1.0 1:-0.6 2:-1.0 3:0.19999999999999996 
-1.0 1.0 1:-1.0 2:-1.0 3:-1.0 
-0.0 1.0 1:-1.0 2:-0.5 3:-0.6 
-1.0 1.0 1:-0.6 2:-1.0 3:-1.0 
-1.0 1.0 1:-0.6 2:-1.0 3:-1.0 
-0.0 1.0 1:0.19999999999999996 2:0.5 3:-1.0 
-0.0 1.0 1:0.19999999999999996 3:-0.19999999999999996 
-1.0 1.0 1:0.19999999999999996 2:-1.0 3:0.19999999999999996 
-1.0 1.0 1:-1.0 2:-1.0 3:-1.0 
-1.0 1.0 1:-0.6 2:-1.0 3:-0.6 
-1.0 1.0 1:-0.6 2:-0.5 3:-0.6 
-0.0 1.0 1:-0.6 3:-1.0 
-1.0 1.0 1:0.19999999999999996 2:-1.0 3:-1.0 
-1.0 1.0 1:-0.6 2:-1.0 3:-1.0 
-0.0 1.0 1:-1.0 3:0.19999999999999996 
-1.0 1.0 1:0.19999999999999996 2:-1.0 3:-1.0 
-1.0 1.0 1:-0.6 2:-0.5 3:-1.0 
-1.0 1.0 1:-0.6 2:-1.0 3:-0.6 
-1.0 1.0 1:-0.6 2:-1.0 3:-0.6 
-1.0 1.0 1:0.19999999999999996 2:-1.0 3:-0.6 
-1.0 1.0 1:-1.0 2:-1.0 3:-1.0 
-0.0 1.0 1:-0.19999999999999996 3:-1.0 
-1.0 1.0 1:-0.6 2:-1.0 3:-1.0 
-1.0 1.0 1:-1.0 2:-1.0 3:-0.6 
-1.0 1.0 1:-0.6 2:-1.0 3:-1.0 
-1.0 1.0 1:-0.6 2:-1.0 3:-1.0 
-0.0 1.0 1:-1.0 2:-0.5 3:-0.19999999999999996 
-0.0 1.0 1:-1.0 2:0.5 3:-1.0 
-0.0 1.0 1:-1.0 2:-0.5 3:-0.6 
-0.0 1.0 1:-0.6 3:-0.6 
-1.0 1.0 1:-0.6 2:-1.0 3:-0.6 
-0.0 1.0 1:-0.6 3:-0.6 
-0.0 1.0 1:0.19999999999999996 2:-0.5 3:0.19999999999999996 
-1.0 1.0 1:-0.6 2:-0.5 3:-1.0 
-1.0 1.0 1:0.19999999999999996 2:-0.5 3:-0.6 
-1.0 1.0 1:-1.0 2:-1.0 3:-0.6 
-1.0 1.0 1:-1.0 2:-1.0 3:-0.19999999999999996 
-1.0 1.0 1:-0.6 2:-0.5 3:-1.0 
-1.0 1.0 1:0.6000000000000001 2:-1.0 3:-1.0 
-1.0 1.0 1:-0.6 2:-1.0 3:-1.0 
-0.0 1.0 1:-0.19999999999999996 3:-1.0 
-0.0 1.0 1:-1.0 2:-0.5 3:-0.19999999999999996 
-1.0 1.0 1:-1.0 2:-0.5 3:-1.0 
-0.0 1.0 1:-0.6 2:0.5 3:-1.0 
-1.0 1.0 1:-1.0 2:-1.0 3:0.19999999999999996 
-1.0 1.0 1:-1.0 2:-1.0 3:-1.0 
-0.0 1.0 1:-1.0 2:-0.5 3:-0.6 
-0.0 1.0 1:-0.6 3:-0.19999999999999996 
-1.0 1.0 1:-0.6 2:-1.0 3:-0.6 
-0.0 1.0 1:-1.0 2:-0.5 3:-0.6 
-1.0 1.0 1:-0.6 2:-1.0 3:-1.0 
-1.0 1.0 1:-1.0 2:-0.5 3:-1.0 
-1.0 1.0 1:-1.0 2:-0.5 3:-1.0 
-0.0 1.0 1:-1.0 3:-1.0 
-1.0 1.0 1:-0.6 2:-0.5 3:-0.6 
-1.0 1.0 1:-0.6 2:-1.0 3:-1.0 
-1.0 1.0 1:-1.0 2:-0.5 3:-1.0 
-1.0 1.0 1:-1.0 2:-1.0 3:-0.19999999999999996 
-1.0 1.0 1:-1.0 2:-1.0 3:-0.6 
-1.0 1.0 1:-1.0 2:-1.0 3:-0.6 
-1.0 1.0 1:-1.0 2:-0.5 3:-1.0 
-0.0 1.0 1:-1.0 2:1.0 3:-1.0 
-0.0 1.0 1:-0.6 3:-1.0 
-1.0 1.0 1:-1.0 2:-0.5 3:-1.0 
-1.0 1.0 1:-0.19999999999999996 2:-1.0 3:-0.6 
-1.0 1.0 1:-1.0 2:-1.0 3:-1.0 
-1.0 1.0 1:-0.19999999999999996 2:-1.0 3:-0.6 
-1.0 1.0 1:-1.0 2:-1.0 3:-1.0 
-0.0 1.0 1:-1.0 2:-0.5 3:-0.6 
-1.0 1.0 1:-0.6 2:-0.5 3:-1.0 
-0.0 1.0 1:-0.6 2:-0.5 3:-0.19999999999999996 
-1.0 1.0 1:-0.6 2:-0.5 3:-1.0 
-1.0 1.0 1:-0.6 2:-1.0 3:-1.0 
-1.0 1.0 1:0.6000000000000001 2:-1.0 3:-0.6 
-0.0 1.0 1:-0.6 2:-0.5 3:-0.19999999999999996 
-0.0 1.0 1:-1.0 2:-0.5 3:-0.6 
-1.0 1.0 1:-0.6 2:-1.0 3:-0.6 
-1.0 1.0 1:-0.6 2:-1.0 3:-1.0 
-1.0 1.0 1:-1.0 2:-1.0 3:-0.19999999999999996 
-0.0 1.0 1:-1.0 3:-0.19999999999999996 
-1.0 1.0 1:0.19999999999999996 2:-0.5 3:-1.0 
-1.0 1.0 1:-1.0 2:-1.0 3:-1.0 
-1.0 1.0 1:-1.0 2:-1.0 3:-1.0 
-1.0 1.0 1:-0.6 2:-0.5 3:-1.0 
-0.0 1.0 1:-1.0 2:-0.5 3:-0.6 
-1.0 1.0 1:-1.0 2:-1.0 3:-1.0 
-1.0 1.0 1:-0.19999999999999996 2:-0.5 3:-0.6 
-1.0 1.0 1:-0.6 2:-1.0 3:-0.6 
-1.0 1.0 1:-1.0 2:-1.0 3:-0.6 
-1.0 1.0 1:0.6000000000000001 3:-1.0 
-1.0 1.0 1:-0.19999999999999996 2:-1.0 3:-1.0 
-1.0 1.0 1:-0.19999999999999996 2:-0.5 3:-1.0 
-1.0 1.0 1:-0.6 2:-1.0 3:0.19999999999999996 
-1.0 1.0 1:0.6000000000000001 2:-1.0 3:-0.19999999999999996 
-0.0 1.0 1:-0.6 3:-0.19999999999999996 
-0.0 1.0 1:-0.6 3:-0.19999999999999996 
-1.0 1.0 1:-0.6 2:-1.0 3:-1.0 
-1.0 1.0 1:-0.6 2:-1.0 3:-0.6 
-1.0 1.0 1:-0.19999999999999996 2:-0.5 3:-1.0 
-1.0 1.0 1:0.19999999999999996 2:-1.0 3:-1.0 
-1.0 1.0 1:-0.6 2:-1.0 3:0.19999999999999996 
-0.0 1.0 1:-0.6 2:-0.5 3:0.19999999999999996 
-1.0 1.0 1:-1.0 2:-1.0 3:-0.6 
-1.0 1.0 1:-0.19999999999999996 2:-1.0 3:-1.0 
-0.0 1.0 1:-0.6 3:-1.0 
-1.0 1.0 1:-0.6 2:-1.0 3:-0.19999999999999996 
-1.0 1.0 1:-1.0 2:-0.5 3:-1.0 
-1.0 1.0 1:-1.0 2:-0.5 3:-1.0 
-1.0 1.0 1:-0.19999999999999996 2:-0.5 3:-1.0 
-1.0 1.0 1:-0.6 2:-1.0 3:-1.0 
-1.0 1.0 1:-0.19999999999999996 2:-1.0 3:-1.0 
-0.0 1.0 1:-1.0 3:-0.6 
-1.0 1.0 1:-1.0 2:-1.0 3:-0.6 
-0.0 1.0 1:-0.19999999999999996 2:0.5 3:-0.6 
-1.0 1.0 1:0.19999999999999996 2:-0.5 3:-0.6 
-1.0 1.0 1:-0.6 2:-0.5 3:-1.0 
-0.0 1.0 1:-1.0 2:-0.5 3:-0.6 
-1.0 1.0 1:0.19999999999999996 2:-1.0 3:-0.19999999999999996 
-1.0 1.0 1:-0.6 2:-1.0 3:-1.0 
-1.0 1.0 1:-1.0 2:-0.5 3:-1.0 
-1.0 1.0 1:-0.6 2:-1.0 3:-1.0 
-1.0 1.0 1:-0.6 2:-1.0 3:-1.0 
-1.0 1.0 1:0.19999999999999996 2:-1.0 3:-0.19999999999999996 
-0.0 1.0 1:-0.19999999999999996 3:-0.6 
-0.0 1.0 1:-1.0 3:-1.0 
-1.0 1.0 1:-1.0 2:-1.0 3:-0.6 
-1.0 1.0 1:-0.6 2:-0.5 3:-1.0 
-1.0 1.0 1:-1.0 2:-1.0 3:-1.0 
-1.0 1.0 1:-0.19999999999999996 2:-1.0 3:-0.6 
-1.0 1.0 1:-0.19999999999999996 2:-1.0 3:-0.6 
-1.0 1.0 1:0.19999999999999996 2:-1.0 3:0.19999999999999996 
-1.0 1.0 1:-1.0 2:-0.5 3:-1.0 
-1.0 1.0 1:-1.0 2:-0.5 3:-1.0 
-1.0 1.0 1:-1.0 2:-0.5 3:-1.0 
-0.0 1.0 1:-1.0 3:-1.0 
-0.0 1.0 1:-0.19999999999999996 3:-0.6 
-1.0 1.0 1:-0.6 2:-1.0 3:-1.0 
-1.0 1.0 1:-0.19999999999999996 2:-0.5 3:-0.6 
-1.0 1.0 1:-0.19999999999999996 2:-0.5 3:-0.19999999999999996 
-1.0 1.0 1:-0.6 2:-0.5 3:-1.0 
-0.0 1.0 1:-0.6 2:0.5 3:-0.6 
-1.0 1.0 1:-1.0 2:-1.0 3:-1.0 
-0.0 1.0 1:-0.6 3:-0.6 
-1.0 1.0 1:-1.0 2:-1.0 3:-1.0 
-1.0 1.0 1:-0.6 2:-1.0 3:-1.0 
-0.0 1.0 1:-0.6 3:-1.0 
-1.0 1.0 1:-1.0 2:-1.0 3:-0.6 
-0.0 1.0 1:-1.0 2:-0.5 3:-0.6 
-0.0 1.0 1:-0.19999999999999996 2:0.5 3:-1.0 
-1.0 1.0 1:-0.6 2:-0.5 3:-1.0 
-1.0 1.0 1:-0.6 2:-0.5 3:-1.0 
-1.0 1.0 1:-1.0 2:-1.0 3:-0.6 
-0.0 1.0 1:-0.6 3:-0.6 
-1.0 1.0 1:-0.6 2:-1.0 3:-0.19999999999999996 
-0.0 1.0 1:-1.0 2:1.0 3:-1.0 
-1.0 1.0 1:0.19999999999999996 2:-0.5 3:-0.6 
-1.0 1.0 1:-1.0 2:-1.0 3:-1.0 
-0.0 1.0 1:-1.0 2:-0.5 3:-0.6 
-1.0 1.0 1:-0.19999999999999996 2:-0.5 3:-1.0 
-1.0 1.0 1:-0.6 2:-1.0 3:-1.0 
-1.0 1.0 1:0.19999999999999996 2:-1.0 3:-1.0 
-0.0 1.0 1:-0.6 2:-0.5 3:-0.19999999999999996 
-0.0 1.0 1:-1.0 3:-1.0 
-0.35290723581092204 1.0 1:-0.6 2:-1.0 3:0.6000000000000001 
-0.0 1.0 1:-1.0 2:-0.5 3:-0.19999999999999996 
-1.0 1.0 1:1.0 2:-1.0 3:-1.0 
-1.0 1.0 1:-1.0 2:-0.5 3:-1.0 
-1.0 1.0 1:-0.6 2:-1.0 3:-1.0 
-1.0 1.0 1:-1.0 2:-1.0 3:-1.0 
-1.0 1.0 1:-0.6 2:-1.0 3:-0.6 
-0.0 1.0 1:-1.0 3:-1.0 
-1.0 1.0 1:-0.6 2:-0.5 3:-1.0 
-0.0 1.0 1:-0.6 3:-1.0 
-1.0 1.0 1:-0.19999999999999996 2:-0.5 3:-0.6 
-1.0 1.0 1:-1.0 2:-0.5 3:-1.0 
-1.0 1.0 1:-0.6 2:-1.0 3:-1.0 
-1.0 1.0 1:-1.0 2:-1.0 3:-0.6 
-0.0 1.0 1:-1.0 3:-1.0 
-0.0 1.0 1:-1.0 3:-1.0 
-0.0 1.0 1:-1.0 3:-1.0 
-1.0 1.0 1:-1.0 2:-0.5 3:-1.0 
-1.0 1.0 1:-1.0 2:-0.5 3:-1.0 
-1.0 1.0 1:-1.0 2:-0.5 3:-1.0 
-1.0 1.0 1:-1.0 2:-0.5 3:-1.0 
-0.0 1.0 1:-1.0 2:-0.5 3:-0.6 
-0.0 1.0 1:-0.6 3:-1.0 
-0.0 1.0 1:-1.0 2:-0.5 3:-0.6 
-1.0 1.0 1:-0.6 2:-0.5 3:-0.6 
-1.0 1.0 1:-1.0 2:-1.0 3:-0.6 
-0.0 1.0 1:-1.0 2:0.5 3:-0.6 
-1.0 1.0 1:-0.6 2:-1.0 3:-1.0 
-1.0 1.0 1:-1.0 2:-1.0 3:-0.19999999999999996 
-1.0 1.0 1:-0.19999999999999996 2:-1.0 3:-0.6 
-1.0 1.0 1:-1.0 2:-1.0 3:-1.0 
-1.0 1.0 1:-0.19999999999999996 2:-0.5 3:-0.6 
-1.0 1.0 1:-0.19999999999999996 2:-1.0 3:-0.6 
-1.0 1.0 1:-0.19999999999999996 2:-1.0 3:-0.6 
-0.0 1.0 1:-1.0 2:-0.5 3:-0.6 
-1.0 1.0 1:-1.0 2:-0.5 3:-1.0 
-1.0 1.0 1:-1.0 2:-1.0 3:-0.6 
-1.0 1.0 1:-1.0 2:-0.5 3:-1.0 
-1.0 1.0 1:-1.0 2:-1.0 3:-1.0 
-1.0 1.0 1:-1.0 2:-1.0 3:-1.0 
-1.0 1.0 1:-1.0 2:-1.0 3:-1.0 
-1.0 1.0 1:-0.6 2:-0.5 3:-0.6 
-1.0 1.0 1:-1.0 2:-1.0 3:-1.0 
-1.0 1.0 1:-1.0 2:-1.0 3:-1.0 
-1.0 1.0 1:-0.19999999999999996 2:-1.0 3:-0.6 
-1.0 1.0 1:-1.0 2:-0.5 3:-1.0 
-1.0 1.0 1:-1.0 2:-1.0 3:-1.0 
-1.0 1.0 1:-1.0 2:-1.0 3:-1.0 
-1.0 1.0 1:-1.0 2:-1.0 3:-1.0 
-1.0 1.0 1:-0.6 2:-0.5 3:-1.0 
-1.0 1.0 1:-1.0 2:-1.0 3:-1.0 
-1.0 1.0 1:-0.6 2:-0.5 3:-1.0 
-0.0 1.0 1:-0.19999999999999996 2:0.5 3:-1.0 
-1.0 1.0 1:-1.0 2:-1.0 3:-1.0 
-1.0 1.0 1:-1.0 2:-1.0 3:-1.0 
-1.0 1.0 1:-0.6 2:-1.0 3:-0.19999999999999996 
-1.0 1.0 1:-0.6 2:-1.0 3:-1.0 
-1.0 1.0 1:-1.0 2:-0.5 3:-1.0 
-1.0 1.0 1:-0.6 2:-0.5 3:-0.6 
-1.0 1.0 1:-0.6 2:-1.0 3:-1.0 
-1.0 1.0 1:-0.6 2:-1.0 3:-1.0 
-1.0 1.0 1:-0.6 2:-0.5 3:-1.0 
-1.0 1.0 1:-1.0 2:-1.0 3:-0.6 
-1.0 1.0 1:0.19999999999999996 3:-1.0 
-1.0 1.0 1:-1.0 2:-0.5 3:-1.0 
-1.0 1.0 1:-0.6 2:-1.0 3:-1.0 
-1.0 1.0 1:-0.6 2:-1.0 3:-1.0 
-1.0 1.0 1:-0.6 2:-1.0 3:-1.0 
-1.0 1.0 1:-0.6 2:-0.5 3:-0.6 
-1.0 1.0 1:-0.6 2:-1.0 3:-1.0 
-1.0 1.0 1:-1.0 2:-0.5 3:-1.0 
-0.0 1.0 1:-0.6 3:-1.0 
-1.0 1.0 1:-1.0 2:-0.5 3:-1.0 
-1.0 1.0 1:-1.0 2:-1.0 3:-0.6 
-1.0 1.0 1:-1.0 2:-1.0 3:-0.6 
-0.0 1.0 1:-1.0 2:-0.5 3:-0.6 
-0.0 1.0 1:-1.0 2:-0.5 3:-0.19999999999999996 
-1.0 1.0 1:-0.6 2:-0.5 3:-0.6 
-0.0 1.0 1:-1.0 2:-0.5 3:-0.19999999999999996 
-1.0 1.0 1:-1.0 2:-1.0 3:-1.0 
-1.0 1.0 1:-1.0 2:-1.0 3:-1.0 
-0.0 1.0 1:-1.0 2:-0.5 3:-0.6 
-1.0 1.0 1:-1.0 2:-0.5 3:-1.0 
-1.0 1.0 1:0.19999999999999996 2:-0.5 3:-1.0 
-1.0 1.0 1:-0.6 2:-1.0 3:-1.0 
-0.0 1.0 1:-1.0 3:-1.0 
-1.0 1.0 1:-0.6 2:-1.0 3:-0.19999999999999996 
-1.0 1.0 1:-0.19999999999999996 2:-1.0 3:-1.0 
-1.0 1.0 1:-0.6 2:-1.0 3:-1.0 
-1.0 1.0 1:0.19999999999999996 2:-0.5 3:-1.0 
-1.0 1.0 1:-1.0 2:-1.0 3:-1.0 
-1.0 1.0 1:-0.6 2:-1.0 3:-0.6 
-1.0 1.0 1:-0.19999999999999996 2:-0.5 3:-1.0 
-1.0 1.0 1:-0.6 2:-1.0 3:-0.6 
-1.0 1.0 1:-0.6 2:-0.5 3:-1.0 
-1.0 1.0 1:-0.19999999999999996 2:-1.0 3:-1.0 
-1.0 1.0 1:0.19999999999999996 2:-0.5 3:-1.0 
-1.0 1.0 1:-0.6 2:-1.0 3:-1.0 
-1.0 1.0 1:-0.6 2:-1.0 3:-0.6 
-0.0 1.0 1:-1.0 2:-0.5 3:-0.6 
-1.0 1.0 1:-1.0 2:-1.0 3:-0.6 
-1.0 1.0 1:-0.19999999999999996 2:-0.5 3:-0.6 
-1.0 1.0 1:-1.0 2:-0.5 3:-1.0 
-1.0 1.0 1:-0.6 2:-1.0 3:-1.0 
-1.0 1.0 1:-1.0 2:-1.0 3:-1.0 
-1.0 1.0 1:-0.6 2:-1.0 3:-0.19999999999999996 
-1.0 1.0 1:-1.0 2:-0.5 3:-1.0 
-1.0 1.0 1:-0.6 2:-1.0 3:-0.6 
-0.0 1.0 1:-1.0 2:-0.5 3:-0.6 
-0.0 1.0 1:-1.0 2:-0.5 3:-0.6 
-1.0 1.0 1:0.19999999999999996 2:-1.0 3:-1.0 
-1.0 1.0 1:-0.6 2:-1.0 3:-1.0 
-1.0 1.0 1:-1.0 2:-1.0 3:-0.6 
-1.0 1.0 1:-0.6 2:-1.0 3:-1.0 
-1.0 1.0 1:-0.6 2:-1.0 3:-1.0 
-0.0 1.0 1:-1.0 2:-0.5 3:-0.6 
-1.0 1.0 1:-1.0 2:-1.0 3:-1.0 
-1.0 1.0 1:-1.0 2:-1.0 3:-1.0 
-1.0 1.0 1:-0.19999999999999996 2:-1.0 3:-1.0 
-1.0 1.0 1:-1.0 2:-1.0 3:-1.0 
-1.0 1.0 1:-0.6 2:-0.5 3:-1.0 
-1.0 1.0 1:-0.6 2:-1.0 3:-0.6 
-1.0 1.0 1:-1.0 2:-0.5 3:-1.0 
-1.0 1.0 1:-1.0 2:-0.5 3:-1.0 
-1.0 1.0 1:-0.6 2:-1.0 3:-0.6 
-1.0 1.0 1:-0.19999999999999996 2:-1.0 3:-1.0 
-1.0 1.0 1:-1.0 2:-1.0 3:-0.6 
-1.0 1.0 1:-0.19999999999999996 2:-1.0 3:-1.0 
-1.0 1.0 1:-0.19999999999999996 2:-0.5 3:-1.0 
-1.0 1.0 1:-1.0 2:-1.0 3:-1.0 
-1.0 1.0 1:-0.19999999999999996 2:-0.5 3:-1.0 
-1.0 1.0 1:-1.0 2:-1.0 3:-1.0 
-0.0 1.0 1:-1.0 2:-0.5 3:-0.6 
-1.0 1.0 1:-1.0 2:-1.0 3:-1.0 
-1.0 1.0 1:-1.0 2:-1.0 3:-1.0 
-1.0 1.0 1:-1.0 2:-1.0 3:-1.0 
-1.0 1.0 1:-1.0 2:-1.0 3:-0.19999999999999996 
-0.9961565396358302 1.0 1:-1.0 2:-0.5 3:-0.6 
-1.0 1.0 1:-1.0 2:-1.0 3:-1.0 
-1.0 1.0 1:-1.0 2:-1.0 3:-1.0 
-1.0 1.0 1:-1.0 2:-0.5 3:-0.6 
-1.0 1.0 1:-1.0 2:-1.0 3:-1.0 
-1.0 1.0 1:-1.0 2:-1.0 3:-0.6 
-1.0 1.0 1:-0.19999999999999996 2:-0.5 3:-0.6 
-1.0 1.0 1:-0.6 2:-1.0 3:-1.0 
-0.0 1.0 1:-1.0 2:0.5 3:-1.0 
-1.0 1.0 1:-0.6 2:-1.0 3:-0.6 
-0.0 1.0 1:-1.0 2:0.5 3:-1.0 
-1.0 1.0 1:-1.0 2:-0.5 3:-0.6 
-1.0 -1.0 1:-1.0 3:-0.19999999999999996 
-1.0 -1.0 1:0.6000000000000001 3:-1.0 
-0.0 -1.0 1:-0.6 2:-0.5 3:-0.6 
-0.0 -1.0 1:-0.6 3:-0.6 
-1.0 -8.936881185334867E-4 1:-0.19999999999999996 2:-1.0 3:0.19999999999999996 
-0.0 -1.0 1:-0.19999999999999996 2:-0.5 3:-0.6 
-0.0 -1.0 1:-1.0 3:-1.0 
-0.0 -1.0 1:-0.19999999999999996 2:-0.5 3:-1.0 
-0.0 -1.0 1:-0.19999999999999996 2:-0.5 3:-1.0 
-1.0 -0.0 1:0.19999999999999996 2:-1.0 3:-0.6 
-0.0 -1.0 1:-0.6 3:-1.0 
-0.0 -1.0 1:0.6000000000000001 2:-0.5 3:-0.19999999999999996 
-0.0 -1.0 1:-0.6 2:-0.5 3:-0.6 
-0.0 -1.0 1:-0.6 3:-1.0 
-1.0 -0.9989435291225023 1:0.19999999999999996 2:-0.5 3:-0.6 
-0.0 -1.0 1:-0.6 3:-0.6 
-0.0 -1.0 1:-0.6 2:-0.5 3:-0.6 
-0.0 -1.0 1:-1.0 3:-1.0 
-0.0 -1.0 1:-0.6 2:0.5 3:-1.0 
-0.0 -1.0 1:-0.6 3:-0.19999999999999996 
-0.0 -1.0 1:-0.6 3:-1.0 
-0.0 -1.0 1:-1.0 2:-0.5 3:-0.6 
-1.0 -0.0 1:0.19999999999999996 2:-1.0 3:-0.6 
-1.0 -1.0 1:0.19999999999999996 2:-1.0 3:0.19999999999999996 
-1.0 -1.0 1:-0.6 2:-0.5 3:-0.6 
-0.0 -1.0 1:-0.19999999999999996 2:-0.5 3:-0.6 
-0.0 -1.0 1:-1.0 2:-0.5 3:-0.6 
-0.0 -1.0 1:-0.19999999999999996 2:-0.5 3:-0.6 
-0.0 -1.0 1:-0.6 2:-1.0 3:-0.19999999999999996 
-0.0 -1.0 1:-1.0 2:-0.5 3:-0.6 
-0.0 -1.0 1:-1.0 2:-1.0 3:0.19999999999999996 
-0.0 -1.0 1:-0.19999999999999996 2:-0.5 3:-0.19999999999999996 
-0.0 -1.0 1:-0.19999999999999996 2:-0.5 3:-0.19999999999999996 
-0.0 -1.0 1:-0.6 3:-0.6 
-1.0 -1.0 1:-0.19999999999999996 2:-0.5 3:-0.6 
-0.0 -1.0 1:-0.6 3:-1.0 
-1.0 -1.0 1:-0.19999999999999996 2:-1.0 3:0.19999999999999996 
-1.0 -1.0 1:-0.6 3:-0.6 
-0.0 -1.0 1:-0.19999999999999996 3:-1.0 
-0.0 -1.0 1:-0.19999999999999996 3:-1.0 
-1.0 -1.0 1:0.19999999999999996 2:-0.5 3:-0.6 
-0.0 -1.0 1:-1.0 3:-1.0 
-0.0 -1.0 1:-0.19999999999999996 2:-0.5 3:-1.0 
-1.0 -1.0 1:-0.19999999999999996 3:-1.0 
-0.0 -1.0 1:-0.6 2:0.5 3:-1.0 
-0.0 -1.0 1:-0.6 3:-1.0 
-0.0 -1.0 1:-1.0 3:-1.0 
-1.0 -1.0 1:-0.6 2:-0.5 3:-0.6 
-1.0 -0.0 1:0.19999999999999996 2:-1.0 3:-0.6 
-1.0 -0.0 1:0.19999999999999996 2:-1.0 3:-0.6 
-1.0 -0.0 1:0.19999999999999996 2:-1.0 3:-0.19999999999999996 
-1.0 -0.0 1:0.19999999999999996 2:-1.0 3:-0.19999999999999996 
-1.0 -1.0 1:0.19999999999999996 2:-1.0 3:-0.19999999999999996 
-1.0 -1.0 1:0.6000000000000001 2:-1.0 3:-0.19999999999999996 
-1.0 -1.0 1:0.6000000000000001 2:0.5 3:-1.0 
-0.0 -1.0 1:-1.0 2:-0.5 3:-0.6 
-0.0 -1.0 1:-0.19999999999999996 2:-0.5 3:-1.0 
-1.0 -1.0 1:-0.19999999999999996 2:-0.5 3:-1.0 
-1.0 -1.0 1:-0.19999999999999996 2:-0.5 3:-1.0 
-0.0 -1.0 1:0.19999999999999996 3:-0.19999999999999996 
-0.0 -1.0 1:-1.0 2:0.5 3:-0.19999999999999996 
-0.0 -1.0 1:-1.0 2:-1.0 3:0.19999999999999996 
-1.0 -1.0 1:-0.6 2:-0.5 3:-0.6 
-0.0 -1.0 1:-0.19999999999999996 3:-0.6 
-0.0 -1.0 1:-1.0 3:-1.0 
-0.0 -0.00481869058162537 1:-1.0 2:-0.5 3:-0.19999999999999996 
-1.0 -1.0 1:-0.6 2:-1.0 3:0.19999999999999996 
-1.0 -0.9991063118814665 1:-1.0 2:-1.0 3:0.19999999999999996 
-0.0 -1.0 1:-1.0 2:-0.5 3:-0.6 
-0.0 -1.0 1:-1.0 2:-0.5 3:-0.6 
-1.0 -1.0 1:-0.6 2:-1.0 3:0.19999999999999996 
-0.0 -1.0 1:-1.0 2:-0.5 3:-0.6 
-0.0 -1.0 1:-1.0 2:-0.5 3:-1.0 
-0.0 -1.0 1:-1.0 2:-0.5 3:-1.0 
-1.0 -0.0 1:0.19999999999999996 2:-1.0 3:-1.0 
-0.0 -1.0 1:-1.0 3:-1.0 
-0.0 -1.0 1:-1.0 2:-0.5 3:-1.0 
-0.0 -1.0 1:-1.0 3:-1.0 
-0.0 -1.0 1:-1.0 2:0.5 3:-1.0 
-0.0 -1.0 1:0.6000000000000001 2:-0.5 3:-0.6 
-0.0 -1.0 1:-0.6 2:-0.5 3:-0.19999999999999996 
-0.0 -1.0 1:-1.0 2:-0.5 3:-0.19999999999999996 
-0.0 -1.0 1:-1.0 2:-0.5 3:-1.0 
-0.0 -1.0 1:-0.6 3:-1.0 
-1.0 -0.0 1:-0.19999999999999996 2:-1.0 3:-1.0 
-0.0 -1.0 1:-1.0 2:0.5 3:-1.0 
-0.0 -1.0 1:-1.0 2:-0.5 3:-1.0 
-1.0 -1.0 1:0.19999999999999996 2:-0.5 3:-0.6 
-1.0 -1.0 1:0.19999999999999996 2:-0.5 3:-0.6 
-1.0 -0.0 1:0.19999999999999996 2:-1.0 3:-1.0 
-1.0 -1.0 1:-0.19999999999999996 2:-0.5 3:-0.6 
-0.0 -1.0 1:-1.0 2:-0.5 3:-1.0 
-1.0 -1.0 1:-0.19999999999999996 2:-0.5 3:-1.0 
-1.0 -0.0 1:-0.19999999999999996 2:-1.0 3:-0.19999999999999996 
-1.0 -0.0 1:-0.19999999999999996 2:-1.0 3:-1.0 
-0.0 -1.0 1:-0.6 3:-0.19999999999999996 
-0.0 -1.0 1:-0.6 2:-0.5 3:0.19999999999999996 
-1.0 -0.0 1:0.19999999999999996 2:-1.0 3:-1.0 
-1.0 -1.0 1:-0.6 2:-1.0 3:-0.19999999999999996 
-0.0 -1.0 1:-1.0 2:-0.5 3:-1.0 
-1.0 -0.0010564708774977033 1:1.0 2:-1.0 3:-0.6 
-0.0 -1.0 1:-1.0 2:-0.5 3:-0.6 
-0.0 -1.0 1:-1.0 2:-0.5 3:-0.6 
-1.0 -0.0 1:-0.19999999999999996 2:-1.0 3:-1.0 
-0.0 -1.0 1:-1.0 2:-0.5 3:-1.0 
-0.0 -1.0 1:-1.0 2:-0.5 3:-1.0 
-0.0 -1.0 1:-1.0 2:-0.5 3:-0.6 
-0.0 -1.0 1:-1.0 2:-0.5 3:-1.0 
-0.0 -1.0 1:-1.0 2:-0.5 3:-0.6 
-1.0 -1.0 1:-0.19999999999999996 3:-1.0 
-1.0 -1.0 1:-0.19999999999999996 2:-0.5 3:-0.6 
-1.0 -0.0 1:-0.6 2:-1.0 3:-1.0 
-1.0 -0.0 1:-0.19999999999999996 2:-1.0 3:-1.0 
-1.0 -0.0 1:-0.6 2:-1.0 3:-1.0 
-1.0 -0.0 1:-0.6 2:-1.0 3:-1.0 
-1.0 -0.0 1:-0.6 2:-1.0 3:-1.0 
-1.0 -0.0 1:-0.19999999999999996 2:-1.0 3:-1.0 
-1.0 -0.0 1:-0.6 2:-1.0 3:-1.0 
-0.0 -1.0 1:-1.0 2:-0.5 3:-0.6 
-0.0 -1.0 1:-1.0 2:-0.5 3:-1.0 
-1.0 -1.0 1:-0.19999999999999996 2:-1.0 3:-0.6 
-0.0 -1.0 1:-1.0 3:-0.6 
-1.0 -0.0 1:-0.19999999999999996 2:-1.0 3:-0.19999999999999996 
-1.0 -0.0 1:-0.6 2:-1.0 3:-1.0 
-1.0 -1.0 1:-0.19999999999999996 2:-1.0 3:-0.6 
-1.0 -0.0 1:-0.6 2:-1.0 3:-1.0 
-1.0 -1.0 1:-0.6 2:-0.5 3:-0.6 
-1.0 -0.0 1:-0.6 2:-1.0 3:-1.0 
-0.0 -1.0 1:-1.0 2:-0.5 3:-1.0 
-0.0 -1.0 1:-1.0 2:-0.5 3:-0.6 
-1.0 -0.0 1:-0.6 2:-1.0 3:-1.0 
-1.0 -1.0 1:-0.19999999999999996 2:-1.0 3:-0.6 
-1.0 -0.0 1:-0.6 2:-1.0 3:-1.0 
-1.0 -0.0 1:-0.6 2:-1.0 3:-1.0 
-1.0 -1.0 1:0.6000000000000001 2:-0.5 3:-1.0 
-1.0 -1.0 1:-0.6 2:-0.5 3:-0.6 
-1.0 -0.0 1:-0.6 2:-1.0 3:-1.0 
-0.0 -1.0 1:-1.0 2:-0.5 3:-1.0 
-1.0 -0.0 1:-0.19999999999999996 2:-1.0 3:-1.0 
-1.0 -0.0 1:-0.6 2:-1.0 3:-1.0 
-1.0 -1.0 1:-0.19999999999999996 2:-0.5 3:-1.0 
-1.0 -0.0 1:-0.6 2:-1.0 3:-1.0 
-0.0 -0.9960998571047691 1:-0.6 2:-0.5 3:-1.0 
-1.0 -0.0 1:-0.6 2:-1.0 3:-1.0 
-1.0 -0.0 1:-0.19999999999999996 2:-1.0 3:-1.0 
-1.0 -0.0 1:-0.19999999999999996 2:-1.0 3:-1.0 
-1.0 -0.0 1:-0.19999999999999996 2:-1.0 3:-1.0 
-1.0 -0.0 1:-0.6 2:-1.0 3:-1.0 
-1.0 -1.0 1:0.19999999999999996 2:-1.0 3:-1.0 
-1.0 -1.0 1:-0.19999999999999996 3:-1.0 
-0.0 -1.0 1:-1.0 2:-0.5 3:-1.0 
-1.0 -1.0 1:-0.6 2:-0.5 3:-0.19999999999999996 
-1.0 -0.0 1:-0.6 2:-1.0 3:-1.0 
-1.0 -1.0 1:-1.0 2:-1.0 3:-0.19999999999999996 
-0.0 -1.0 1:-1.0 2:-0.5 3:-0.6 
-0.0 -1.0 1:-0.6 2:-0.5 3:-1.0 
-1.0 -1.0 1:-0.19999999999999996 2:-1.0 3:-0.6 
-1.0 -0.0 1:-0.6 2:-1.0 3:-1.0 
-1.0 -0.0 1:-0.6 2:-1.0 3:-1.0 
-0.0 -1.0 1:-1.0 3:-0.6 
-0.0 -1.0 1:-0.6 2:-0.5 3:-1.0 
-0.0 -1.0 1:-0.6 2:-0.5 3:-1.0 
-0.0 -1.0 1:-0.6 2:-0.5 3:-1.0 
-1.0 -0.0 1:-0.6 2:-1.0 3:-1.0 
-1.0 -1.0 1:-0.6 2:-1.0 3:0.19999999999999996 
-0.0 -1.0 1:-1.0 2:-0.5 3:-0.6 
-1.0 -1.0 1:0.19999999999999996 2:-1.0 3:-1.0 
-1.0 -1.0 1:0.19999999999999996 2:-1.0 3:-1.0 
-1.0 -0.0 1:-0.6 2:-1.0 3:-1.0 
-1.0 -0.0 1:-0.6 2:-1.0 3:-1.0 
-1.0 -1.0 1:-0.19999999999999996 2:-0.5 3:-1.0 
-1.0 -0.0 1:-0.19999999999999996 2:-1.0 3:-1.0 
-1.0 -1.0 1:-0.6 2:-1.0 3:-0.19999999999999996 
-0.0 -1.0 1:-1.0 2:-0.5 3:-0.19999999999999996 
-1.0 -1.0 1:-1.0 2:-1.0 3:-0.19999999999999996 
-0.0 -1.0 1:-1.0 2:-0.5 3:-1.0 
-1.0 -1.0 1:-0.6 2:-0.5 3:-0.6 
-0.0 -1.0 1:-0.6 2:-0.5 3:-1.0 
-0.0 -1.0 1:-1.0 2:-0.5 3:-0.6 
-0.0 -1.0 1:-0.6 2:-0.5 3:-1.0 
-0.0 -1.0 1:-1.0 3:-1.0 
-1.0 -1.0 1:-0.19999999999999996 2:-1.0 3:-0.6 
-0.0 -1.0 1:-1.0 2:-0.5 3:-1.0 
-1.0 -0.0 1:-0.6 2:-1.0 3:-1.0 
-0.0 -1.0 1:-1.0 2:-1.0 3:-0.6 
-0.0 -1.0 1:-1.0 2:-0.5 3:-1.0 
-1.0 -1.0 1:-0.6 2:-1.0 3:-0.19999999999999996 
-0.0 -1.0 1:-1.0 2:-0.5 3:-0.6 
-0.0 -1.0 1:-1.0 2:-0.5 3:-1.0 
-1.0 -0.0 1:-0.19999999999999996 2:-1.0 3:-1.0 
-0.0 -1.0 1:-0.6 2:-1.0 3:-0.6 
-1.0 -0.0 1:-0.19999999999999996 2:-1.0 3:-1.0 
-0.0 -1.0 1:-0.6 2:-1.0 3:-0.6 
-1.0 -0.0 1:-0.6 2:-1.0 3:-1.0 
-1.0 -1.0 1:-1.0 2:-1.0 3:-0.19999999999999996 
-1.0 -0.0 1:-0.6 2:-1.0 3:-1.0 
-0.0 -1.0 1:-1.0 3:-1.0 
-1.0 -1.0 1:-0.6 2:-0.5 3:-1.0 
-0.0 -1.0 1:-1.0 2:-0.5 3:-1.0 
-1.0 -0.0 1:-0.6 2:-1.0 3:-1.0 
-0.0 -1.0 1:-1.0 2:-1.0 3:-0.6 
-1.0 -1.0 1:-1.0 2:-1.0 3:-0.19999999999999996 
-0.0 -1.0 1:-1.0 3:-1.0 
-0.0 -1.0 1:-1.0 2:-0.5 3:-1.0 
-1.0 -0.0 1:-0.6 2:-1.0 3:-1.0 
-0.0 -1.0 1:-0.6 2:-1.0 3:-0.6 
-0.0 -1.0 1:-0.6 2:-1.0 3:-0.6 
-1.0 -0.0 1:-0.6 2:-1.0 3:-1.0 
-0.0 -1.0 1:-1.0 3:-0.6 
-1.0 -1.0 1:-0.6 2:-0.5 3:-1.0 
-1.0 -1.0 1:-0.6 2:-0.5 3:-1.0 
-1.0 -0.0 1:1.0 2:-1.0 3:-1.0 
-1.0 -0.0 1:-0.6 2:-1.0 3:-1.0 
-1.0 -0.0 1:-0.6 2:-1.0 3:-1.0 
-0.0 -1.0 1:-1.0 2:-1.0 3:-0.6 
-1.0 -0.0 1:-0.6 2:-1.0 3:-1.0 
-0.0 -1.0 1:-1.0 2:-1.0 3:-0.6 
-1.0 -1.0 1:-1.0 3:-1.0 
-1.0 -0.0 1:-0.6 2:-1.0 3:-1.0 
-0.0 -1.0 1:-1.0 2:-1.0 3:-0.6 
-0.0 -1.0 1:-1.0 2:-1.0 3:-0.6 
-0.0 -1.0 1:-1.0 2:-0.5 3:-1.0 
-0.0 -1.0 1:-1.0 2:-1.0 3:-0.6 
-1.0 -1.0 1:-0.6 2:-1.0 3:-0.19999999999999996 
-1.0 -1.0 1:-0.6 2:-1.0 3:-0.6 
-0.0 -1.0 1:-1.0 2:-0.5 3:-1.0 
-0.0 -1.0 1:-1.0 2:-1.0 3:-0.6 
-1.0 -1.0 1:-0.19999999999999996 2:-1.0 3:-0.6 
-1.0 -0.0 1:-0.6 2:-1.0 3:-1.0 
-1.0 -1.0 1:-0.6 2:-1.0 3:-0.6 
-1.0 -0.0 1:-0.6 2:-1.0 3:-1.0 
-1.0 -1.0 1:-1.0 2:-0.5 3:-1.0 
-1.0 -0.0 1:-0.6 2:-1.0 3:-1.0 
-1.0 -1.0 1:0.19999999999999996 2:-1.0 3:-0.6 
-1.0 -0.0 1:-0.6 2:-1.0 3:-1.0 
-0.0 -1.0 1:-1.0 2:-1.0 3:-0.6 
-1.0 -1.0 1:-0.6 2:-1.0 3:-0.6 
-1.0 -1.0 1:-0.6 2:-0.5 3:-0.6 
-0.0 -1.0 1:-1.0 2:-1.0 3:-0.6 
-0.0 -1.0 1:-0.6 2:0.5 3:-1.0 
-1.0 -1.0 1:-1.0 2:-1.0 3:-0.6 
-0.0 -1.0 1:-1.0 2:-0.5 3:-0.6 
-1.0 -0.0 1:-0.6 2:-1.0 3:-1.0 
-1.0 -0.0 1:-0.6 2:-1.0 3:-1.0 
-0.0 -1.0 1:-1.0 2:-0.5 3:-0.6 
-1.0 -0.0 1:-0.6 2:-1.0 3:-1.0 
-1.0 -0.0 1:-0.6 2:-1.0 3:-1.0 
-1.0 -1.0 1:-0.6 2:-0.5 3:-0.6 
-1.0 -0.0 1:-0.6 2:-1.0 3:-1.0 
-1.0 -1.0 1:-0.6 2:-1.0 3:-0.6 
-1.0 -1.0 1:-1.0 2:-1.0 3:-0.6 
-0.0 -1.0 1:-1.0 2:-0.5 3:-0.6 
-1.0 -1.0 1:-0.6 2:-0.5 3:-1.0 
-1.0 -1.0 1:-1.0 2:-1.0 3:-0.6 
-1.0 -1.0 1:0.19999999999999996 2:-1.0 3:-1.0 
-1.0 -0.0 1:-0.6 2:-1.0 3:-1.0 
-1.0 -1.0 1:-0.6 2:0.5 3:-1.0 
-1.0 -1.0 1:-1.0 2:-1.0 3:-0.6 
-0.0 -1.0 1:-1.0 3:-0.6 
-1.0 -1.0 1:0.19999999999999996 2:-1.0 3:-0.6 
-1.0 -1.0 1:0.19999999999999996 2:-0.5 3:-0.6 
-1.0 -0.0 1:-0.6 2:-1.0 3:-1.0 
-1.0 -0.0 1:-0.6 2:-1.0 3:-1.0 
-1.0 -1.0 1:-0.6 2:-1.0 3:-0.6 
-1.0 -1.0 1:-0.6 2:-1.0 3:-0.6 
-1.0 -1.0 1:-0.6 2:-0.5 3:-1.0 
-1.0 -0.0 1:-0.6 2:-1.0 3:-1.0 
-1.0 -1.0 1:-0.6 2:-1.0 3:-0.6 
-1.0 -0.0 1:-0.6 2:-1.0 3:-1.0 
-1.0 -1.0 1:-1.0 2:-0.5 3:-1.0 
-1.0 -1.0 1:-0.6 2:-1.0 3:-0.6 
-1.0 -0.0 1:-0.6 2:-1.0 3:-1.0 
-0.0 -1.0 1:-0.6 3:-1.0 
-1.0 -0.0 1:-0.6 2:-1.0 3:-1.0 
-1.0 -0.0 1:-0.6 2:-1.0 3:-1.0 
-0.0 -1.0 1:-1.0 2:-0.5 3:-0.19999999999999996 
-1.0 -1.0 1:-0.6 2:-1.0 3:-0.6 
-1.0 -1.0 1:-0.6 2:-1.0 3:-1.0 
-1.0 -1.0 1:-0.6 2:-1.0 3:-1.0 
-1.0 -1.0 1:-0.6 2:-1.0 3:-1.0 
-1.0 -1.0 1:-0.6 2:-1.0 3:-1.0 
-1.0 -1.0 1:-1.0 2:-1.0 3:-0.6 
-1.0 -0.0 1:-1.0 2:-1.0 3:-1.0 
-1.0 -1.0 1:-0.6 2:-1.0 3:-1.0 
-1.0 -0.0 1:-1.0 2:-1.0 3:-1.0 
-1.0 -1.0 1:-0.6 2:-1.0 3:-1.0 
-1.0 -1.0 1:-0.6 2:-1.0 3:-1.0 
-1.0 -1.0 1:-0.6 2:-1.0 3:-1.0 
-1.0 -1.0 1:-1.0 2:-1.0 3:-0.6 
-1.0 -1.0 1:-0.6 2:-0.5 3:-1.0 
-1.0 -1.0 1:-0.6 2:-1.0 3:-1.0 
-1.0 -1.0 1:-1.0 2:-0.5 3:-1.0 
-1.0 -1.0 1:-0.6 2:-1.0 3:-1.0 
-1.0 -1.0 1:-0.6 2:-1.0 3:-1.0 
-1.0 -0.0 1:-1.0 2:-1.0 3:-1.0 
-1.0 -1.0 1:-1.0 2:-0.5 3:-1.0 
-1.0 -0.0 1:-1.0 2:-1.0 3:-1.0 
-1.0 -1.0 1:-0.6 2:-1.0 3:-0.19999999999999996 
-1.0 -1.0 1:-0.6 2:-1.0 3:-1.0 
-1.0 -1.0 1:-0.6 2:-1.0 3:-1.0 
-1.0 -0.0 1:-1.0 2:-1.0 3:-1.0 
-1.0 -1.0 1:-0.6 2:-1.0 3:-1.0 
-1.0 -1.0 1:-0.6 2:-1.0 3:-1.0 
-1.0 -1.0 1:-1.0 2:-1.0 3:-0.6 
-1.0 -0.0 1:-1.0 2:-1.0 3:-1.0 
-1.0 -0.0 1:-1.0 2:-1.0 3:-1.0 
-1.0 -0.0 1:-1.0 2:-1.0 3:-1.0 
-0.0 -1.0 1:-1.0 2:-0.5 3:-0.6 
-1.0 -1.0 1:-0.6 3:-0.6 
-1.0 -1.0 1:-0.6 2:-0.5 3:-0.6 
-1.0 -1.0 1:-0.6 2:-0.5 3:-1.0 
-1.0 -1.0 1:-1.0 2:-1.0 3:-1.0 
-1.0 -0.0 1:-0.19999999999999996 2:-1.0 3:-1.0 
-1.0 -1.0 1:-0.19999999999999996 2:-0.5 3:-0.6 
-0.0 -1.0 1:-1.0 2:-0.5 3:0.19999999999999996 
-1.0 -1.0 1:-1.0 2:-1.0 3:-1.0 
-1.0 -1.0 1:-0.6 2:-0.5 3:-1.0 
-1.0 -1.0 1:-1.0 2:-1.0 3:-1.0 
-1.0 -1.0 1:-0.19999999999999996 2:-1.0 3:-1.0 
-1.0 -1.0 1:-1.0 2:-1.0 3:-1.0 
-1.0 -0.0 1:0.19999999999999996 2:-1.0 3:-1.0 
-1.0 -1.0 1:-0.6 2:-1.0 3:-1.0 
-1.0 -1.0 1:-0.6 2:-1.0 3:-1.0 
-1.0 -1.0 1:-1.0 2:-0.5 3:-1.0 
-1.0 -1.0 1:-1.0 2:-1.0 3:-1.0 
-1.0 -1.0 1:-1.0 2:-1.0 3:-1.0 
-1.0 -1.0 1:-0.6 2:-0.5 3:-1.0 
-1.0 -1.0 1:-0.6 2:-1.0 3:-1.0 
-1.0 -1.0 1:-1.0 2:-1.0 3:-1.0 
-1.0 -1.0 1:-1.0 2:-1.0 3:-1.0 
-1.0 -1.0 1:-0.6 3:-1.0 
-1.0 -1.0 1:-1.0 2:-1.0 3:-1.0 
-1.0 -1.0 1:-1.0 2:-1.0 3:-1.0 
-1.0 -1.0 1:-1.0 2:-1.0 3:-1.0 
-1.0 -1.0 1:-1.0 2:-1.0 3:-1.0 
-1.0 -1.0 1:-1.0 2:-1.0 3:-0.6 
-1.0 -1.0 1:-1.0 2:-1.0 3:-1.0 
-1.0 -1.0 1:-0.19999999999999996 2:-0.5 3:-0.6 
-1.0 -1.0 1:-0.6 2:-1.0 3:-1.0 
-1.0 -1.0 1:-1.0 2:-1.0 3:-1.0 
-1.0 -1.0 1:-1.0 2:-1.0 3:-1.0 
-1.0 -1.0 1:-1.0 2:-0.5 3:-1.0 
-1.0 -1.0 1:-0.19999999999999996 2:-1.0 3:-0.6 
-1.0 -1.0 1:-0.19999999999999996 2:-0.5 3:-0.6 
-1.0 -1.0 1:-1.0 2:-1.0 3:-1.0 
-1.0 -1.0 1:-1.0 2:-1.0 3:-1.0 
-1.0 -1.0 1:-0.6 2:-1.0 3:-1.0 
-1.0 -1.0 1:-1.0 2:-0.5 3:-1.0 
-1.0 -1.0 1:-0.6 2:-1.0 3:-0.6 
-0.0 -1.0 1:-1.0 2:-0.5 3:-0.6 
-1.0 -1.0 1:-1.0 2:-1.0 3:-1.0 
-1.0 -1.0 1:-0.6 2:-1.0 3:-1.0 
-1.0 -1.0 1:-0.19999999999999996 2:-1.0 3:-0.6 
-1.0 -1.0 1:-1.0 2:-1.0 3:-0.6 
-1.0 -1.0 1:-1.0 2:-1.0 3:-1.0 
-0.0 -1.0 1:-1.0 2:-0.5 3:-0.19999999999999996 
-1.0 -1.0 1:-0.6 2:-0.5 3:-1.0 
-1.0 -1.0 1:-1.0 2:-1.0 3:-1.0 
-0.0 -1.0 1:-1.0 2:-0.5 3:-0.19999999999999996 
-1.0 -1.0 1:-1.0 2:-1.0 3:-1.0 
-1.0 -1.0 1:-0.6 2:-1.0 3:-1.0 
-1.0 -1.0 1:-1.0 2:-0.5 3:-1.0 
-1.0 -1.0 1:-0.6 2:-1.0 3:-1.0 
-1.0 -1.0 1:-0.19999999999999996 2:-1.0 3:-1.0 
-1.0 -1.0 1:-1.0 2:-1.0 3:-0.6 
-1.0 -1.0 1:-1.0 2:-1.0 3:-1.0 
-1.0 -1.0 1:-1.0 2:-0.5 3:-0.6 
-1.0 -1.0 1:-1.0 2:-1.0 3:-0.19999999999999996 
-1.0 -1.0 1:-1.0 2:-1.0 3:-1.0 
-1.0 -1.0 1:-0.19999999999999996 2:-1.0 3:-0.6 
-1.0 -1.0 1:-0.6 2:-1.0 3:-1.0 
-1.0 -1.0 1:-0.6 2:-0.5 3:-1.0 
-1.0 -1.0 1:-0.19999999999999996 2:-1.0 3:-1.0 
-1.0 -1.0 1:-1.0 2:-1.0 3:-1.0 
-1.0 -1.0 1:0.19999999999999996 2:-1.0 3:-0.19999999999999996 
-1.0 -1.0 1:-0.6 2:-0.5 3:-1.0 
-1.0 -1.0 1:-0.6 2:-1.0 3:-1.0 
-1.0 -1.0 1:-0.6 2:-1.0 3:-1.0 
-1.0 -1.0 1:-1.0 2:-1.0 3:-1.0 
-1.0 -1.0 1:-0.6 2:-1.0 3:-1.0 
-1.0 -1.0 1:-0.6 2:-1.0 3:-1.0 
-1.0 -0.0 1:0.6000000000000001 2:-1.0 3:-1.0 
-1.0 -1.0 1:-1.0 2:-1.0 3:-1.0 
-1.0 -1.0 1:-1.0 2:-1.0 3:-1.0 
-1.0 -0.0 1:0.6000000000000001 2:-1.0 3:-1.0 
-1.0 -1.0 1:-0.6 2:-1.0 3:-1.0 
-1.0 -1.0 1:-1.0 2:-1.0 3:-1.0 
-1.0 -1.0 1:-0.6 2:-1.0 3:-1.0 
-1.0 -1.0 1:-0.6 2:-1.0 3:-0.6 
-1.0 -1.0 1:-0.6 2:-0.5 3:-1.0 
-1.0 -1.0 1:-1.0 2:-0.5 3:-1.0 
-1.0 -1.0 1:-1.0 2:-1.0 3:-1.0 
-1.0 -1.0 1:-0.6 2:-1.0 3:-1.0 
-1.0 -1.0 1:-1.0 2:-1.0 3:-1.0 
-1.0 -1.0 1:-1.0 2:-1.0 3:-1.0 
-1.0 -1.0 1:-0.6 2:-1.0 3:-0.19999999999999996 
-1.0 -1.0 1:-1.0 2:-1.0 3:-1.0 
-1.0 -1.0 1:-1.0 2:-1.0 3:-1.0 
-1.0 -1.0 1:-0.19999999999999996 2:-1.0 3:-1.0 
-1.0 -1.0 1:-0.19999999999999996 2:-1.0 3:-1.0 
-1.0 -1.0 1:-1.0 2:-1.0 3:-1.0 
-1.0 -1.0 1:-0.6 2:-1.0 3:-1.0 
-1.0 -1.0 1:-1.0 2:-1.0 3:-1.0 
-1.0 -1.0 1:-0.19999999999999996 2:-1.0 3:-1.0 
-1.0 -1.0 1:-1.0 2:-0.5 3:-0.6 
-1.0 -1.0 1:-1.0 2:-1.0 3:-1.0 
-1.0 -1.0 1:-1.0 2:-0.5 3:-0.6 
-1.0 -1.0 1:-1.0 2:-1.0 3:-1.0 
-1.0 -1.0 1:-0.19999999999999996 2:-1.0 3:-0.6 
-1.0 -1.0 1:-1.0 2:-1.0 3:-0.6 
-1.0 -1.0 1:-0.6 2:-1.0 3:-1.0 
-1.0 -1.0 1:0.6000000000000001 2:0.5 3:-1.0 
-1.0 -1.0 1:-1.0 2:-1.0 3:-1.0 
-1.0 -1.0 1:-1.0 2:-1.0 3:-1.0 
-1.0 -1.0 1:-0.6 2:-1.0 3:-1.0 
-1.0 -1.0 1:-0.6 2:-1.0 3:-1.0 
-1.0 -1.0 1:-1.0 2:-0.5 3:-1.0 
-1.0 -0.008610711129907581 1:-1.0 2:-1.0 3:-1.0 
-1.0 -0.9904707411836979 1:-1.0 2:-1.0 3:-0.6 
-1.0 -1.0 1:-0.6 2:-1.0 3:-1.0 
-1.0 -1.0 1:-0.6 2:-0.5 3:-0.19999999999999996 
-1.0 -0.0 1:-1.0 2:-1.0 3:-1.0 
-1.0 -1.0 1:-0.19999999999999996 2:-1.0 3:-1.0 
-1.0 -1.0 1:-0.6 2:-1.0 3:-0.6 
-1.0 -1.0 1:-1.0 2:-0.5 3:-1.0 
-1.0 -1.0 1:-0.19999999999999996 2:-1.0 3:-1.0 
-1.0 -1.0 1:-0.6 2:-1.0 3:-0.6 
-1.0 -1.0 1:-0.6 2:-1.0 3:-0.6 
-1.0 -1.0 1:-0.6 2:-1.0 3:-1.0 
-1.0 -1.0 1:-0.6 2:-1.0 3:-1.0 
-1.0 -1.0 1:-1.0 2:-0.5 3:-0.6 
-1.0 -1.0 1:-0.19999999999999996 2:-1.0 3:-1.0 
-1.0 -1.0 1:-0.6 2:-1.0 3:-1.0 
-1.0 -0.0 1:-1.0 2:-1.0 3:-1.0 
